tree
version=v4
num_class=1
num_tree_per_iteration=1
label_index=0
max_feature_idx=9
objective=regression
feature_names=Column_0 Column_1 Column_2 Column_3 Column_4 Column_5 Column_6 Column_7 Column_8 Column_9
feature_infos=[50:228] [0:99] [18:99] [4:15] [0.015237485058605671:0.78201895952224731] [2:27000] [0:5] [0:10] [0:1] [0:21]
tree_sizes=5394 5789 5777 5681 5715 5774 5692 5770 5657 5691 5687 5743 5806 5743 5790 5920 5833 5844 5813 5835 5816 5866 5853 5934 5857 5817 5810 5825 5806 5836 5832

Tree=0
num_leaves=63
num_cat=0
split_feature=0 2 7 7 1 0 2 1 1 2 0 1 7 7 5 2 4 7 0 4 2 4 5 4 4 5 2 5 4 4 4 4 4 2 4 4 5 2 5 8 5 2 4 2 7 2 7 2 0 2 5 8 4 4 7 7 4 5 2 2 0 2
split_gain=103.678 59.5909 35.5551 59.9764 30.4358 29.1707 34.3791 28.8622 21.1472 20.9215 17.7859 17.2977 19.0942 18.0769 15.5645 14.5428 13.2088 16.9418 11.4757 11.4252 11.1692 10.8816 10.2768 10.028 10.9851 9.94196 9.65335 9.87014 9.48541 9.40488 14.4173 9.19922 9.14433 13.188 8.77761 12.8826 8.67362 8.49018 10.6217 8.29819 8.06016 7.98673 7.92143 9.11306 11.7688 11.793 9.33563 7.40346 7.29629 7.24251 7.62239 7.44707 7.58871 8.2658 8.24639 7.20034 7.56113 7.27868 6.91115 7.13691 7.1135 6.81838
threshold=61.500000000000007 37.500000000000007 3.5000000000000004 2.5000000000000004 9.5000000000000018 97.500000000000014 35.500000000000007 7.5000000000000009 14.500000000000002 63.500000000000007 54.500000000000007 4.5000000000000009 2.5000000000000004 3.5000000000000004 4101.5000000000009 75.500000000000014 0.14564150571823123 6.5000000000000009 68.500000000000014 0.089227773249149336 33.500000000000007 0.32641831040382391 44.500000000000007 0.36596556007862097 0.41056412458419805 4221.0000000000009 62.500000000000007 3223.5000000000005 0.15815388411283496 0.14416217803955081 0.20529873669147494 0.30343540012836462 0.19650901854038241 27.500000000000004 0.13270517438650134 0.13508193939924243 1112.0000000000002 36.500000000000007 108.50000000000001 1.0000000180025095e-35 227.50000000000003 41.500000000000007 0.12801038473844531 49.500000000000007 8.5000000000000018 55.500000000000007 5.5000000000000009 76.500000000000014 56.500000000000007 32.500000000000007 71.500000000000014 1.0000000180025095e-35 0.29296883940696722 0.13670457154512408 6.5000000000000009 6.5000000000000009 0.042318774387240417 32.500000000000007 52.500000000000007 54.500000000000007 50.500000000000007 56.500000000000007
decision_type=2 2 2 2 2 2 2 2 2 2 2 2 2 2 2 2 2 2 2 2 2 2 2 2 2 2 2 2 2 2 2 2 2 2 2 2 2 2 2 2 2 2 2 2 2 2 2 2 2 2 2 2 2 2 2 2 2 2 2 2 2 2
left_child=1 4 3 15 10 6 7 18 58 42 11 12 25 28 36 23 17 20 29 -6 -13 -18 31 -3 -25 37 27 -8 -14 -2 -31 32 33 -9 -20 -36 -12 38 -1 -34 -10 -29 43 46 45 -45 -4 -17 -38 51 -51 -24 53 -53 -54 56 -48 -57 -5 60 -60 -44
right_child=5 2 9 8 19 -7 26 22 40 -11 14 16 13 -15 -16 47 21 -19 34 -21 -22 -23 49 24 -26 -27 -28 41 -30 30 -32 -33 39 -35 35 -37 48 -39 -40 -41 -42 -43 61 44 -46 -47 55 -49 -50 50 -52 52 54 -55 -56 57 -58 -59 59 -61 -62 -63
leaf_value=6.9129795992798098 6.8843435642821653 6.8929935644793909 6.9045269184791671 6.9013410799451416 6.8980165475977371 6.9045285584892389 6.9017538734360606 6.8525242489673603 6.8932565444416802 6.8978864174709171 6.8976561392987668 6.8651973366551511 6.9228369103052891 6.8895274942777753 6.9189487708913502 6.9303554578996556 6.8946778714438111 6.8509352452776655 6.9109807027585992 6.8742758858941251 6.8872864448260245 6.8525347565771684 6.8913091000978852 6.8438530680393237 6.8906184584828063 6.8423748093444026 6.9070405999394229 6.9022709371252526 6.8962237949544418 6.9068699045600042 6.8816409695118796 6.869524164215516 6.9217125902794709 6.8993935856072017 6.8584207279829101 6.9001488665145754 6.9103932486628548 6.8616013706618464 6.8790879313594013 6.8977946237274983 6.8447560352512875 6.8922173823324533 6.8940178478008587 6.8971494340526291 6.8757867233279262 6.886939454202146 6.8952751012727491 6.9026705022369041 6.8791805925406466 6.9239166957081126 6.8933330603879055 6.8662675804043785 6.8538678351579128 6.8870294619869155 6.8907830499151439 6.9116222884333309 6.881056351456742 6.8883585502592926 6.9116251668255773 6.9052705416538966 6.9398675585055924 6.8867514740983449
leaf_weight=20 136 2331 41 695 35 1489 1746 10.999999999999998 10.000000000000002 718 225 59 51 167 42 18 93 45 123 373 99 9.9999999999999982 354 12.999999999999998 20 10.999999999999998 396 191 37 109 53 13.999999999999998 47 47 10.999999999999998 827 12.999999999999998 24 49 46 11.999999999999998 369 1108 464 67 295 68 91 85 12.999999999999998 188 33 26 370 15.999999999999998 22 544 328 89 618 17 254
leaf_count=20 136 2331 41 695 35 1489 1746 11 10 718 225 59 51 167 42 18 93 45 123 373 99 10 354 13 20 11 396 191 37 109 53 14 47 47 11 827 13 24 49 46 12 369 1108 464 67 295 68 91 85 13 188 33 26 370 16 22 544 328 89 618 17 254
internal_value=6.89578 6.89304 6.89442 6.89712 6.88556 6.8996 6.89817 6.89471 6.9036 6.89172 6.88924 6.88535 6.89135 6.89724 6.89633 6.89334 6.87838 6.87247 6.89891 6.87632 6.87887 6.89017 6.89017 6.89268 6.87109 6.87699 6.90127 6.90027 6.91182 6.89206 6.89855 6.89939 6.90234 6.88999 6.90103 6.89955 6.89334 6.88165 6.88907 6.91007 6.86555 6.89566 6.89034 6.88861 6.89174 6.89318 6.88605 6.90755 6.88347 6.88865 6.89546 6.88694 6.8835 6.88525 6.86739 6.88525 6.88263 6.88987 6.90421 6.90696 6.91656 6.89265
internal_weight=15876 9261 7823 3914 1438 6615 5126 2424 1441 3909 1030 665 359 255 365 2473 306 203 1259 408 158 103 1165 2364 33 104 2702 2306 88 298 162 165 151 58 961 838 323 93 69 93 22 560 3191 1829 826 759 1003 109 98 1000 201 799 445 403 42 962 612 350 1419 724 106 1362
internal_count=15876 9261 7823 3914 1438 6615 5126 2424 1441 3909 1030 665 359 255 365 2473 306 203 1259 408 158 103 1165 2364 33 104 2702 2306 88 298 162 165 151 58 961 838 323 93 69 93 22 560 3191 1829 826 759 1003 109 98 1000 201 799 445 403 42 962 612 350 1419 724 106 1362
is_linear=0
shrinkage=1


Tree=1
num_leaves=63
num_cat=0
split_feature=0 9 7 7 0 0 1 1 0 7 3 1 3 1 5 1 7 3 0 1 3 9 9 9 9 7 5 1 0 5 3 5 5 9 5 8 3 5 1 5 1 8 0 1 0 5 3 5 9 1 0 1 1 1 3 5 5 5 9 1 3 5
split_gain=95.561 70.1307 31.2297 69.1238 26.894 18.2221 17.4293 16.6512 12.1186 11.3062 9.62454 12.8454 9.239 13.2134 14.5087 8.97564 8.94629 8.51097 11.8295 8.44432 8.3394 11.8365 9.90336 8.08645 8.00891 12.9726 7.5508 10.4373 8.2601 7.36362 7.32273 7.23576 7.01249 7.26963 6.96233 6.46668 6.42566 9.71249 16.1954 6.80918 6.3693 10.8625 6.30954 6.12338 6.88032 5.90334 6.03507 5.78972 14.5362 8.79991 5.73631 5.71385 5.66253 5.6098 6.9794 10.6802 10.6598 9.62298 7.70525 9.1272 7.96426 9.51241
threshold=61.500000000000007 17.500000000000004 3.5000000000000004 2.5000000000000004 97.500000000000014 62.500000000000007 15.500000000000002 7.5000000000000009 74.500000000000014 4.5000000000000009 4.5000000000000009 10.500000000000002 10.500000000000002 5.5000000000000009 399.50000000000006 10.500000000000002 6.5000000000000009 11.500000000000002 79.500000000000014 1.0000000180025095e-35 4.5000000000000009 7.5000000000000009 4.5000000000000009 6.5000000000000009 15.500000000000002 5.5000000000000009 2451.0000000000005 4.5000000000000009 51.500000000000007 743.00000000000011 10.500000000000002 73.500000000000014 8502.0000000000018 6.5000000000000009 3734.0000000000005 1.0000000180025095e-35 6.5000000000000009 5441.0000000000009 7.5000000000000009 375.00000000000006 12.500000000000002 1.0000000180025095e-35 68.500000000000014 1.5000000000000002 139.50000000000003 743.00000000000011 7.5000000000000009 4991.5000000000009 1.0000000180025095e-35 6.5000000000000009 53.500000000000007 12.500000000000002 12.500000000000002 10.500000000000002 7.5000000000000009 8502.0000000000018 4647.5000000000009 25198.000000000004 10.500000000000002 1.5000000000000002 4.5000000000000009 1005.5000000000001
decision_type=2 2 2 2 2 2 2 2 2 2 2 2 2 2 2 2 2 2 2 2 2 2 2 2 2 2 2 2 2 2 2 2 2 2 2 2 2 2 2 2 2 2 2 2 2 2 2 2 2 2 2 2 2 2 2 2 2 2 2 2 2 2
left_child=1 2 3 12 5 -2 -5 8 16 10 15 34 53 14 -14 -3 -7 -10 -19 -11 21 22 47 -16 -22 -26 27 29 -28 -23 32 -21 33 35 -12 -9 39 38 45 51 -15 -42 -34 -6 -45 -38 -47 48 49 -4 -13 -27 -46 54 56 -56 58 -58 59 -1 -60 -62
right_child=4 9 20 6 43 7 -8 30 17 19 11 50 13 40 23 -17 -18 18 -20 31 24 26 -24 -25 25 36 28 -29 -30 -31 -32 -33 42 -35 -36 -37 37 -39 -40 -41 41 -43 -44 44 52 46 -48 -49 -50 -51 -52 -53 -54 -55 55 -57 57 -59 60 -61 61 -63
leaf_value=-0.014838255223807167 0.0084204496217775166 0.012968969854811005 -0.014821787686397629 0.0069005610977502831 0.017260482170752118 0.0026301581795649489 -0.0436838312365792 0.0003025138928264448 0.0055459654544008112 0.020635737345074161 0.0097077700345765613 -0.010737923841002165 -0.0061209701958202557 0.0027569432027521545 -0.064999761953073387 0.041726529757181802 -0.0057816041300490081 0.060295476729219581 0.0068876449010874096 -0.01658756514415145 -0.0051307153018015986 0.0050415698353733331 -0.034383921401008315 -0.026381636863350866 0.010776503392060599 -0.012150948022934989 -0.028806993379711342 -0.0062015735995283915 0.0064025615493456525 0.044315299849279899 -0.01296765982795013 0.00097783954562234493 -0.028541690368491867 0.0017322861641012293 -0.0022598829474714068 -0.006601602082601004 -0.023817439390553367 0 -0.0084748422616244389 -0.0041092938982828812 0.0065883385293623977 -0.03619395040246573 -0.0047333674460160935 0.0068247455519636815 0.012783033485412598 -0.023321681454777719 -0.060036880779266354 0.0045169485831260681 -0.011839686860579773 -0.064250991964340212 0.01239577736457189 -0.038060767523944376 0.040316506890689621 -0.0075363780290623955 0.0061140411950490149 -0.028935997311274213 0.013654736083674145 -0.021161687477429709 -0.022290546459811073 -0.00084419745682305528 -0.0038688577315132869 -0.016307527415565591
leaf_weight=84 639 120 11.000000000000002 1135 111 690 9.9999999999999982 435 1313 32 572 92 30 63 15.999999999999998 20 285 10.000000000000002 18 39 2759 27 45 24 44 121 38 200 13.999999999999998 9.9999999999999982 82 604 25 1139 89 430 71 47 100 246 15.999999999999998 21 60 1313 49 14.999999999999998 19 24 182 13.999999999999998 20 14.999999999999998 15.999999999999998 784 188 13.999999999999998 82 13.999999999999998 62 616 379 133
leaf_count=84 639 120 11 1135 111 690 10 435 1313 32 572 92 30 63 16 20 285 10 18 39 2759 27 45 24 44 121 38 200 14 10 82 604 25 1139 89 430 71 47 100 246 16 21 60 1313 49 15 19 24 182 14 20 15 16 784 188 14 82 14 62 616 379 133
internal_value=-0.000189766 -0.00281269 -0.00439647 -0.00172985 0.00348159 0.00210509 0.00641755 0.00120314 0.00356211 0.00483538 0.00773561 0.00596492 -0.00542562 -0.0144217 -0.0276378 0.0173724 0.000163833 0.00602795 0.0275212 0.000900991 -0.0068405 -0.011354 -0.0172745 -0.043135 -0.00609429 -0.00999617 -0.00564593 -0.00256254 -0.0193101 0.0166482 -0.00131203 -0.00010545 -0.000846606 -0.000364383 0.00808937 -0.00312863 -0.0114588 -0.0164346 -0.0201782 -0.00813155 -0.00494872 -0.0179017 -0.0120328 0.00821303 0.00746936 -0.0311013 -0.0450824 -0.0137904 -0.0159437 -0.0440626 -0.00649837 -0.0152948 0.0201293 -0.00476895 -0.00338231 0.00353455 -0.00440692 0.00837029 -0.00537867 -0.00254796 -0.00881335 -0.00713328
internal_weight=15876 9261 7673 3671 6615 5126 1145 4487 2316 1588 913 773 2526 170 70 140 975 1341 28 675 4002 565 276 40 3437 678 289 237 52 37 2171 643 2089 2004 661 865 634 252 205 382 100 37 85 1489 1378 105 34 231 207 25 112 136 65 2356 1572 202 1370 96 1274 700 574 512
internal_count=15876 9261 7673 3671 6615 5126 1145 4487 2316 1588 913 773 2526 170 70 140 975 1341 28 675 4002 565 276 40 3437 678 289 237 52 37 2171 643 2089 2004 661 865 634 252 205 382 100 37 85 1489 1378 105 34 231 207 25 112 136 65 2356 1572 202 1370 96 1274 700 574 512
is_linear=0
shrinkage=0.04


Tree=2
num_leaves=63
num_cat=0
split_feature=0 2 7 7 1 0 2 1 2 1 0 1 7 7 2 3 4 3 7 4 0 4 2 2 4 2 4 4 4 4 2 4 2 2 8 4 7 6 6 4 7 4 4 4 4 4 2 4 2 0 4 3 4 6 2 4 0 2 2 0 2 0
split_gain=88.1547 54.5727 29.8176 50.5857 27.3615 24.8049 30.43 25.2939 19.1362 18.4991 16.3264 15.7668 17.4867 15.8583 13.4062 13.0331 12.166 16.4331 14.1887 10.4871 10.3061 9.84806 8.87847 8.80514 8.77797 9.57435 11.4639 8.74111 8.70919 13.2737 8.70618 8.40944 12.3701 8.12221 13.3449 12.5755 9.1375 9.42785 8.66953 8.57845 8.28408 8.11258 7.66378 7.58046 7.24967 8.67902 9.66231 7.18996 6.84759 6.83338 6.7528 12.1984 7.68237 6.69304 7.63572 6.55143 6.40609 6.37612 6.60391 6.60846 6.34648 6.24832
threshold=61.500000000000007 37.500000000000007 3.5000000000000004 2.5000000000000004 9.5000000000000018 99.500000000000014 35.500000000000007 7.5000000000000009 63.500000000000007 14.500000000000002 54.500000000000007 4.5000000000000009 2.5000000000000004 3.5000000000000004 75.500000000000014 9.5000000000000018 0.14564150571823123 4.5000000000000009 6.5000000000000009 0.089227773249149336 68.500000000000014 0.32641831040382391 62.500000000000007 36.500000000000007 0.33258283138275152 52.500000000000007 0.42185473442077642 0.15815388411283496 0.14416217803955081 0.20529873669147494 33.500000000000007 0.22076340764760974 29.500000000000004 32.500000000000007 1.0000000180025095e-35 0.29296883940696722 2.5000000000000004 1.0000000180025095e-35 1.5000000000000002 0.14416217803955081 6.5000000000000009 0.13121913373470309 0.19057175517082217 0.13508193939924243 0.12801038473844531 0.047760678455233581 45.500000000000007 0.12733384221792224 76.500000000000014 66.500000000000014 0.24293288588523868 5.5000000000000009 0.10105042532086374 3.5000000000000004 36.500000000000007 0.10282103344798089 67.500000000000014 52.500000000000007 54.500000000000007 50.500000000000007 56.500000000000007 85.500000000000014
decision_type=2 2 2 2 2 2 2 2 2 2 2 2 2 2 2 2 2 2 2 2 2 2 2 2 2 2 2 2 2 2 2 2 2 2 2 2 2 2 2 2 2 2 2 2 2 2 2 2 2 2 2 2 2 2 2 2 2 2 2 2 2 2
left_child=1 4 3 14 10 6 7 20 44 57 11 12 15 27 24 23 17 -13 30 -6 28 -18 53 -1 55 -26 -27 -14 -2 -30 -19 -12 -33 34 36 39 49 42 -35 -36 -37 -22 -38 -43 45 46 -4 -25 -16 -9 52 -52 -21 -8 -55 -3 -31 -5 59 -59 -46 -40
right_child=5 2 8 9 19 -7 22 33 -10 -11 31 16 13 -15 48 -17 21 18 -20 50 41 -23 -24 47 25 26 -28 -29 29 56 -32 32 -34 38 35 40 37 -39 61 -41 -42 43 -44 -45 60 -47 -48 -49 -50 -51 51 -53 -54 54 -56 -57 -58 58 -60 -61 -62 -63
leaf_value=-0.0042471846216566751 -0.01121049147292319 -0.0055488686320355907 -0.012999275892215259 0.0048531372853522674 0.0021521360236737464 0.007898916582720017 0.0054285567869224987 -0.040712436036630113 0.0020382069828758153 -0.028546715860781464 -0.0020072237087555137 -0.059272881832387707 0.025493489860342101 -0.0059608693579655319 0.033195285063040883 -0.051548012927174564 -0.0011522899503086477 -0.025594144822886356 -0.038718492979353127 -0.04133412318644316 0.014509247101154648 -0.041244868668642916 0.010477468036992536 -0.052973779284037063 0.0018445517434960321 -0.051425415235757818 -0.00020023478070894875 0 0.01044390847672793 -0.0025590406025157255 -0.0049719581759424623 -0.015454551005363467 0.027731628175925564 0.015498144948257589 -0.025354149945080277 -0.042848913801833984 -0.0061711383461952206 -0.0012004078436752916 -0.0064834998464789887 -0.007395962564969819 -0.0096489623893391014 -0.023094735569813674 0.02704663418782385 0.003871017190260393 -0.0016497973176097284 -0.0078274461099721391 0.0060175253478449674 -0.0077141760090986894 0.0065614488869095633 -0.0075788194786146051 -0.068791401322071372 -0.019736250939192596 -0.016907184275982392 0.016712529127465351 -0.00030418970689993638 -0.0010868039094252678 -0.031057774044218514 0.014729078253772523 0.0086245045018903694 0.041936661389138957 -0.0086593635031989979 0.013030448650941254
leaf_weight=66 136 813 58 695 35 1483 1594 9.9999999999999982 718 22 315 17 51 167 18 14.999999999999998 93 51 43 22 118 9.9999999999999982 396 12.000000000000002 20 19.000000000000004 10.999999999999998 37 109 33 92 13.999999999999998 36 52 47 31 14.999999999999998 236 144 417 21 15.999999999999998 37 828 1108 1617 154 10.999999999999998 91 127 11.999999999999998 26 313 44 670 1501 20 89 618 17 254 31
leaf_count=66 136 813 58 695 35 1483 1594 10 718 22 315 17 51 167 18 15 93 51 43 22 118 10 396 12 20 19 11 37 109 33 92 14 36 52 47 31 15 236 144 417 21 16 37 828 1108 1617 154 11 91 127 12 26 313 44 670 1501 20 89 618 17 254 31
internal_value=-0.000183127 -0.00270237 -0.00138472 0.00108232 -0.00986189 0.00334308 0.00202451 -0.00122447 -0.00385559 0.00703762 -0.00637248 -0.0100991 -0.00437826 0.00125932 -0.00238762 -0.0181196 -0.0167616 -0.0224305 -0.0187428 -0.018624 0.00270328 -0.00544239 0.00494272 -0.011931 -0.00302297 -0.0194544 -0.0333842 0.0149192 -0.00378003 0.00246386 -0.0124812 0.000415217 0.0154951 -0.00546371 -0.00710121 -0.0114196 -0.00183425 0.00220255 0.0013082 -0.00927422 -0.0299517 0.00471761 0.0174535 0.00332836 -0.00518321 -0.00683008 0.000759433 -0.0327179 0.0112579 -0.0103038 -0.0205848 -0.0366966 -0.0186415 0.00398722 0.000760773 -0.00265795 -0.0137633 0.00761185 0.0102442 0.0194811 -0.00296534 -0.00294962
internal_weight=15876 9261 7823 3914 1438 6615 5132 2428 3909 1441 1030 665 359 255 2473 104 306 203 186 408 1260 103 2704 89 2364 50 30 88 298 162 143 365 50 1168 941 516 425 288 227 464 52 962 52 844 3191 1829 212 23 109 137 373 38 335 2308 714 2314 53 1419 724 106 1362 175
internal_count=15876 9261 7823 3914 1438 6615 5132 2428 3909 1441 1030 665 359 255 2473 104 306 203 186 408 1260 103 2704 89 2364 50 30 88 298 162 143 365 50 1168 941 516 425 288 227 464 52 962 52 844 3191 1829 212 23 109 137 373 38 335 2308 714 2314 53 1419 724 106 1362 175
is_linear=0
shrinkage=0.04


Tree=3
num_leaves=63
num_cat=0
split_feature=0 9 2 1 2 0 2 1 3 1 7 7 0 9 2 3 3 5 0 3 5 7 2 2 5 5 0 5 9 3 5 5 2 5 3 7 7 1 9 0 5 2 1 1 0 5 5 3 9 5 5 0 5 5 5 5 7 9 1 2 5 5
split_gain=81.2791 63.5879 42.255 33.3914 27.8287 22.8697 28.7541 23.458 21.3791 16.7755 23.763 23.1348 10.0257 14.3642 9.60501 14.2865 12.0806 11.4633 11.0803 11.0012 9.80296 9.54968 9.43973 13.8294 10.5372 31.0189 9.4099 8.8843 8.78464 8.33971 8.21154 17.4663 8.15886 8.34218 7.96598 7.89123 18.9023 14.6867 10.6023 9.20557 8.69687 7.87704 7.71383 7.61421 8.18345 7.16405 8.45827 8.28486 9.14931 8.06637 7.13247 7.01774 6.95938 6.85522 12.7742 6.74839 6.7309 9.26362 6.57311 9.67321 8.97622 6.55124
threshold=61.500000000000007 17.500000000000004 39.500000000000007 4.5000000000000009 69.500000000000014 97.500000000000014 35.500000000000007 7.5000000000000009 5.5000000000000009 10.500000000000002 5.5000000000000009 1.5000000000000002 51.500000000000007 11.500000000000002 35.500000000000007 8.5000000000000018 11.500000000000002 19.500000000000004 54.500000000000007 9.5000000000000018 1066.0000000000002 4.5000000000000009 51.500000000000007 54.500000000000007 1911.5000000000002 593.50000000000011 68.500000000000014 44.500000000000007 4.5000000000000009 5.5000000000000009 2550.0000000000005 780.00000000000011 60.500000000000007 3223.5000000000005 11.500000000000002 3.5000000000000004 1.5000000000000002 2.5000000000000004 12.500000000000002 56.500000000000007 8555.0000000000018 41.500000000000007 1.0000000180025095e-35 2.5000000000000004 50.500000000000007 153.50000000000003 27.500000000000004 10.500000000000002 11.500000000000002 173.50000000000003 360.00000000000006 53.500000000000007 6475.0000000000009 227.50000000000003 108.50000000000001 73.500000000000014 5.5000000000000009 19.500000000000004 9.5000000000000018 28.500000000000004 156.50000000000003 186.50000000000003
decision_type=2 2 2 2 2 2 2 2 2 2 2 2 2 2 2 2 2 2 2 2 2 2 2 2 2 2 2 2 2 2 2 2 2 2 2 2 2 2 2 2 2 2 2 2 2 2 2 2 2 2 2 2 2 2 2 2 2 2 2 2 2 2
left_child=1 2 3 35 9 6 7 26 12 10 11 45 13 28 15 17 30 -10 -19 20 -16 22 43 24 25 -24 -2 -9 -5 -6 31 -17 33 -8 -21 36 37 39 -39 -1 -37 -35 -23 -3 53 46 -4 49 -49 -47 -25 -12 -22 54 -45 -44 -34 -58 59 -20 -61 -51
right_child=5 21 4 8 29 -7 32 27 14 -11 51 -13 -14 -15 19 16 -18 18 58 34 52 42 23 50 -26 -27 -28 -29 -30 -31 -32 -33 56 41 -36 40 -38 38 -40 -41 -42 -43 55 44 -46 47 -48 48 -50 61 -52 -53 -54 -55 -56 -57 57 -59 -60 60 -62 -63
leaf_value=-0.025061948881795009 -0.0036339604368022201 0.0094585713990519397 0.0030004893554154265 -0.030640218574118305 0.010454985651912725 0.0075718653483478806 0.005125628731471538 0.0032554500611970223 -0.050928415959531619 -0.0072614966760329224 -0.0064671052544214751 0.0051112033297939534 -0.014735575656558426 -0.014969769893397747 -0.0029055139985126022 -0.044575365210883316 0.0016703193113207818 -0.015485486047436076 -0.01735046534538269 0.024082441117614508 -0.027680201792416887 0.019931091695120841 0.011709406661135811 0.014848037242423742 0.0049395251004926621 0.068076780876288046 0.0044865983264586601 -0.006731148802592503 -0.057417623617115519 0.0014156986364082863 -0.063612181790173056 0.0082554109831651044 0.0045458316038009417 0.0058739535300216328 -0.014251152803500495 -0.0090566249923968271 0.011243195163602211 -0.0054163720159029431 0.028084731013878532 0.0071365698211722905 0.023308879971504212 -0.0042428469759996177 -0.015810636641085146 -0.0013747794681018396 0.0094578398000234841 0.02132706404477358 -0.010767421051811318 -0.033629944672584532 0.001507594555616379 -0.024398202750417923 0.0029474683424522137 0.00052843000078469174 0.00078413820894140951 -0.00088227329819110802 -0.042838159355521203 0.0011529076097917949 0.01159907900345953 0.039061231873252174 -0.012337686301463029 -0.0062154979759996591 0.025561257329655855 8.2632545744648885e-05
leaf_weight=71 298 198 92 76 270 1489 1690 165 9.9999999999999982 1436 1616 1000 137 70 175 31 14.999999999999998 178 19 31 53 32 41 135 30 25 961 1000 30 415 14.999999999999998 13.999999999999998 231 191 10.999999999999998 257 165 43 22 17 12.999999999999998 342 39 30 86 27 306 24 22 17 202 266 18 147 19 604 227 21 43 21 40 607
leaf_count=71 298 198 92 76 270 1489 1690 165 10 1436 1616 1000 137 70 175 31 15 178 19 31 53 32 41 135 30 25 961 1000 30 415 15 14 231 191 11 257 165 43 22 17 13 342 39 30 86 27 306 24 22 17 202 266 18 147 19 604 227 21 43 21 40 607
internal_value=-0.000177205 -0.00259622 -0.00410434 -0.00994406 -0.00259401 0.00320869 0.00193926 -0.00122224 -0.0144368 -0.00355579 -0.00221526 0.000713702 -0.0230815 -0.0294356 -0.0103881 -0.0145126 -0.030127 -0.0106497 -0.0091341 -0.00481515 -0.00806155 0.0046863 0.00735199 0.0116327 0.0249785 0.0338178 0.00255996 -0.00531173 -0.0387219 0.00499451 -0.0380389 -0.02823 0.00477636 0.00374997 0.0138517 -0.00238419 0.0018746 -0.00821022 0.00611558 -0.0187865 -0.00740327 -0.0006058 0.00106925 0.00346597 -0.000746027 -0.00329963 -0.00757532 -0.000845048 -0.0170654 0.000319372 0.00775642 -0.00547648 -0.0204977 -0.00526882 -0.0180676 9.48504e-05 0.00951369 0.0140881 7.58314e-05 0.00686742 0.0146334 -0.000615883
internal_weight=15876 9261 7673 1575 6098 6615 5126 2424 987 5413 3977 2095 313 176 674 386 75 311 301 288 246 1588 913 433 96 66 1259 1165 106 685 60 45 2702 2223 42 588 318 153 65 88 270 533 675 480 282 1095 398 697 46 651 337 1882 71 196 49 643 479 248 123 80 61 624
internal_count=15876 9261 7673 1575 6098 6615 5126 2424 987 5413 3977 2095 313 176 674 386 75 311 301 288 246 1588 913 433 96 66 1259 1165 106 685 60 45 2702 2223 42 588 318 153 65 88 270 533 675 480 282 1095 398 697 46 651 337 1882 71 196 49 643 479 248 123 80 61 624
is_linear=0
shrinkage=0.04


Tree=4
num_leaves=63
num_cat=0
split_feature=0 2 7 7 1 0 2 1 1 2 0 1 5 5 2 2 7 7 5 7 5 5 0 3 5 3 5 3 2 2 5 5 2 2 5 7 2 0 1 5 7 0 2 2 7 5 2 0 8 0 0 2 7 2 0 7 7 2 2 5 0 0
split_gain=74.9477 47.1375 25.3213 43.1648 23.7953 21.0773 25.8603 21.4959 16.5412 16.4882 14.1651 13.348 15.671 13.1706 12.4257 11.8616 11.6317 11.3575 10.9273 15.3553 8.79968 8.78864 8.76996 8.48594 8.05561 7.9197 7.94683 13.2675 9.64877 7.63443 7.55188 7.45231 7.26216 7.20421 9.85373 6.74094 7.46243 6.6228 6.55603 6.39154 8.09128 7.75841 6.91805 6.35185 6.21229 6.21002 6.18207 7.07171 6.04392 7.3693 11.5923 7.58043 6.55029 6.0583 6.55714 5.99123 5.88921 5.81811 5.82917 6.61433 6.1187 5.73152
threshold=61.500000000000007 37.500000000000007 3.5000000000000004 2.5000000000000004 9.5000000000000018 99.500000000000014 35.500000000000007 7.5000000000000009 14.500000000000002 63.500000000000007 54.500000000000007 4.5000000000000009 3860.5000000000005 4101.5000000000009 32.500000000000007 75.500000000000014 2.5000000000000004 3.5000000000000004 1489.5000000000002 6.5000000000000009 13959.500000000002 44.500000000000007 68.500000000000014 4.5000000000000009 1112.0000000000002 5.5000000000000009 76.500000000000014 10.500000000000002 34.500000000000007 60.500000000000007 3223.5000000000005 764.00000000000011 41.500000000000007 36.500000000000007 108.50000000000001 7.5000000000000009 33.500000000000007 56.500000000000007 13.500000000000002 960.50000000000011 1.0000000180025095e-35 63.500000000000007 33.500000000000007 76.500000000000014 5.5000000000000009 89.500000000000014 32.500000000000007 87.500000000000014 1.0000000180025095e-35 80.500000000000014 64.500000000000014 21.500000000000004 7.5000000000000009 29.500000000000004 90.500000000000014 6.5000000000000009 7.5000000000000009 52.500000000000007 54.500000000000007 86.500000000000014 50.500000000000007 63.500000000000007
decision_type=2 2 2 2 2 2 2 2 2 2 2 2 2 2 2 2 2 2 2 2 2 2 2 2 2 2 2 2 2 2 2 2 2 2 2 2 2 2 2 2 2 2 2 2 2 2 2 2 2 2 2 2 2 2 2 2 2 2 2 2 2 2
left_child=1 4 3 15 10 6 7 22 57 -4 11 12 16 24 -14 -3 33 -18 19 23 55 -9 39 -13 -12 56 28 45 38 30 -8 -10 -32 34 -1 -21 -37 -26 -27 40 -2 -42 -41 -17 -31 -28 48 -48 -23 50 -50 -51 -52 -53 -55 -20 -6 -5 60 -60 -59 -34
right_child=5 2 9 8 25 -7 29 21 31 -11 13 18 14 -15 -16 43 17 -19 20 35 -22 46 -24 -25 37 26 27 -29 -30 44 32 -33 61 -35 -36 36 -38 -39 -40 42 41 -43 -44 -45 -46 -47 47 -49 49 51 52 53 -54 54 -56 -57 -58 58 59 -61 -62 -63
leaf_value=0.017172244335923875 -0.025566994168692167 -0.0027983482279970206 -0.0047781129061261344 0.0044141710243153064 -0.019648889210648262 0.0072805023140166038 0.004870959813433726 0.0034546643900657133 -0.004568510816647455 0.0019248102811347792 0.0018388852545645385 -0.042430480146408087 0.0057107192715009046 0.021237077714398849 -0.038466480174485375 0.031760282331391387 0.016707216241494998 -0.0023519546409992323 -0.0066397832049263847 -0.053862013020515437 -0.03460759791731835 -0.0040838600887798931 0.0043493082773304031 -0.010550778454891252 0.013808477844510761 -0.020342771180298019 0.017586919968778439 0.030108734121689431 -0.0058474085195256136 0.0043647822842427433 0.0056402190071530639 -0.050984671852805398 0.0078812889048346761 -0.03111099425792694 -0.015563611291574637 -0.0049137286543846125 -0.041587121102213853 -0.015920764090385026 -0.053989870423637329 0.007762806252413869 0.015075172450255466 -0.00897417404947695 -0.01397995506922404 0.0061122734907852576 0.013533357753092985 -0.013448871263844392 -0.0035242072078922886 0.01646807172894478 0.0011831908115120821 -0.018823788017832806 -0.018218133807557969 0.00060476435350705375 -0.040742751770549354 -0.030018761570254959 0.0026718953988131354 0.016910203527126993 -0.038653145315555422 0.01367687696284718 0.0173340174821974 0.0061663896248818195 0.03983546364141835 -0.0062994614321353103
leaf_weight=20 35 2364 3191 695 103 1483 1692 166 12.000000000000002 718 225 13.999999999999998 13.999999999999998 42 33 18 75 145 44 24 10.999999999999998 354 962 150 12.999999999999998 22 9.9999999999999982 11.999999999999998 27 231 191 9.9999999999999982 53 24 48 17 19 85 19 105 26 103 29 91 248 177 168 33 42 62 118 160 26 23 15.999999999999998 27 38 89 102 516 17 289
leaf_count=20 35 2364 3191 695 103 1483 1692 166 12 718 225 14 14 42 33 18 75 145 44 24 11 354 962 150 13 22 10 12 27 231 191 10 53 24 48 17 19 85 19 105 26 103 29 91 248 177 168 33 42 62 118 160 26 23 16 27 38 89 102 516 17 289
internal_value=-0.000170492 -0.00249339 -0.00126875 0.00100462 -0.00914736 0.00308084 0.0018653 -0.00112971 0.00650584 -0.00354573 -0.00589297 -0.00936422 -0.00409892 0.000428731 -0.0253792 -0.00220061 -0.000809622 0.00417359 -0.015495 -0.020055 -0.00289874 -0.00503782 0.002491 -0.0135371 -0.00232185 -0.0173188 -0.0131509 -0.00900515 -0.024919 0.0045555 0.00356343 -0.0271401 -0.000581146 -0.0126857 -0.00576811 -0.0372908 -0.0249781 -0.011837 -0.0369448 -0.00348909 -0.00876786 -0.00401757 0.00295895 0.0106343 0.00913841 -0.0116832 -0.00645079 -0.000156815 -0.00802302 -0.0111176 -0.0172039 -0.00671588 -0.0225656 -0.0028483 -0.0167757 0.00237077 -0.0250349 0.00704905 0.00956329 0.00804108 0.0182426 -0.00407363
internal_weight=15876 9261 7823 3914 1438 6615 5132 2428 1441 3909 1030 665 359 365 47 2473 312 220 306 224 82 1168 1260 164 323 408 267 199 68 2704 2225 22 533 92 68 60 36 98 41 298 164 129 134 109 479 187 1002 201 801 447 186 261 144 199 39 71 141 1419 724 618 106 342
internal_count=15876 9261 7823 3914 1438 6615 5132 2428 1441 3909 1030 665 359 365 47 2473 312 220 306 224 82 1168 1260 164 323 408 267 199 68 2704 2225 22 533 92 68 60 36 98 41 298 164 129 134 109 479 187 1002 201 801 447 186 261 144 199 39 71 141 1419 724 618 106 342
is_linear=0
shrinkage=0.04


Tree=5
num_leaves=63
num_cat=0
split_feature=0 9 7 7 0 4 9 0 5 7 4 0 5 5 4 5 4 3 8 9 0 4 4 3 0 5 9 4 9 4 0 4 9 3 5 0 4 7 9 5 0 3 9 4 3 4 9 7 7 7 3 4 5 3 3 4 4 4 9 5 5 5
split_gain=91.9391 61.611 29.596 26.1459 24.7471 17.3681 12.8835 12.2259 10.9212 10.7664 10.441 10.2939 9.99768 8.60082 10.8667 10.6318 9.44343 10.8848 8.4473 10.8099 9.28739 8.42835 7.73028 8.64243 7.68252 8.99124 7.50097 7.32005 8.51447 8.74765 7.95065 8.53387 7.92913 7.47797 8.88238 7.25134 7.18708 7.02006 6.97125 6.90633 6.70033 6.61158 7.57157 12.8259 9.48488 6.50938 6.35965 6.33307 6.25322 14.4238 10.9719 9.71189 6.24162 6.1683 6.10983 7.79891 11.3943 6.02879 7.13062 7.39885 7.0922 7.11809
threshold=57.500000000000007 17.500000000000004 5.5000000000000009 2.5000000000000004 97.500000000000014 0.28252813220024114 18.500000000000004 56.500000000000007 3867.0000000000005 7.5000000000000009 0.1359059885144234 54.500000000000007 11.500000000000002 1911.5000000000002 0.12889573723077777 2184.0000000000005 0.12185902148485185 5.5000000000000009 1.0000000180025095e-35 4.5000000000000009 70.500000000000014 0.08512537926435472 0.076367139816284194 6.5000000000000009 139.50000000000003 121.50000000000001 14.500000000000002 0.11465835198760034 4.5000000000000009 0.18626537919044497 52.500000000000007 0.10773989185690881 15.500000000000002 4.5000000000000009 740.50000000000011 63.500000000000007 0.15100635588169101 2.5000000000000004 13.500000000000002 3497.0000000000005 61.500000000000007 10.500000000000002 7.5000000000000009 0.22076340764760974 5.5000000000000009 0.13740266114473346 14.500000000000002 7.5000000000000009 4.5000000000000009 2.5000000000000004 4.5000000000000009 0.10690621286630632 1191.5000000000002 5.5000000000000009 8.5000000000000018 0.12889573723077777 0.16303515434265139 0.27973075211048132 3.5000000000000004 1446.0000000000002 3223.5000000000005 578.50000000000011
decision_type=2 2 2 2 2 2 2 2 2 2 2 2 2 2 2 2 2 2 2 2 2 2 2 2 2 2 2 2 2 2 2 2 2 2 2 2 2 2 2 2 2 2 2 2 2 2 2 2 2 2 2 2 2 2 2 2 2 2 2 2 2 2
left_child=1 2 3 5 6 8 9 11 39 10 18 12 -4 21 16 -16 53 -18 19 -2 35 22 -14 -24 -6 -26 57 30 33 32 31 -23 -30 34 -29 40 -28 45 -32 -1 -20 42 43 -17 -44 -12 -47 -25 49 50 51 -3 -34 -15 55 -9 -57 58 60 -60 61 -11
right_child=4 48 7 -5 24 -7 -8 54 -10 26 37 -13 13 14 15 41 17 -19 20 -21 -22 27 23 47 25 -27 36 28 29 -31 38 -33 52 -35 -36 -37 -38 -39 -40 -41 -42 -43 44 -45 -46 46 -48 -49 -50 -51 -52 -53 -54 -55 -56 56 -58 -59 59 -61 -62 -63
leaf_value=-0.0040039990195089806 -0.0066654287143483185 0.049555728216966001 0.010628052156345517 0.0029244612211627623 0.0073959930674827928 -0.020321698480873431 0.0069067424630847854 -0.027914805869261424 0.0062335428938707881 -0.023661165362054652 0.025000769880082874 0.0039618546011119058 -0.0074061991642848492 -0.030218182729557154 -0.032614248743014676 0.0081666390413933608 -0.011841682406572192 -0.063283081531524663 -0.013606407150626181 0.0053830709668460834 0.002675104729989742 -0.0046842864867120146 -0.010281562493066302 -0.034277428507804866 0.054765837550163274 0.014429598221653387 -0.036465911531448368 -0.013890212548917598 -0.0023853414203747463 0.0067170116580251987 0.031422473533587021 0.0077799263549062003 -0.017716675687000291 -0.0076106899699680125 -0.043942623588442802 -0.024385353939007905 -0.007343456652260826 0.0047650766891394235 -0.0067902016937732689 -0.021973448797634666 0.0063562449753284461 0.017403988228124733 -0.022716895957576467 -0.013075715060261162 -0.005138295198712394 -0.00075251658474050813 0.0055611983736540338 -0.00050563010573387139 0.0015208692337499885 0.011419493907890817 -0.001407975604278851 0.0086807278445426468 0.0072330096473819331 -0.0082476981443072132 -0.048397901822220195 0.0097869486300782727 -0.024264645196000734 0.0071704338155104772 -0.002988046205351575 0.010342914787400513 -0.036263138075669603 0.0064990247485452691
leaf_weight=1960 182 10.999999999999998 50 1259 1428 102 824 50 169 21 17 144 751 31 27 93 12.000000000000002 15.999999999999998 81 340 93 393 127 52 9.9999999999999982 56 13.999999999999998 88 348 115 21 112 108 382 19 58 166 2067 10.999999999999998 34 39 15.999999999999998 93 87 106 1049 336 10.999999999999998 614 487 353 46 18 62 9.9999999999999982 32 29 127 396 79 17 28
leaf_count=1960 182 11 50 1259 1428 102 824 50 169 21 17 144 751 31 27 93 12 16 81 340 93 393 127 52 10 56 14 88 348 115 21 112 108 382 19 58 166 2067 11 34 39 16 93 87 106 1049 336 11 614 487 353 46 18 62 10 32 29 127 396 79 17 28
internal_value=0.000180782 -0.00267284 -0.00426716 -0.00169348 0.0034271 -0.00426229 0.00226692 -0.00692131 -0.00349409 0.00151675 0.00233621 -0.00645637 -0.00693516 -0.00722315 -0.0118049 -0.00872226 -0.0223635 -0.0425433 -0.00179962 0.00116989 -0.00751747 -0.006244 -0.00925719 -0.0164755 0.00802795 0.021327 -0.00259501 -0.00448121 -0.00638089 -0.00312373 -0.000655512 -0.00190213 -0.00552879 -0.0102816 -0.0196211 -0.0128503 -0.00981959 0.00328305 0.0183579 -0.00432326 -0.00708658 -0.0070008 -0.0080847 -0.00209392 -0.0134459 0.00109337 0.000779207 -0.0285433 0.00464305 0.00677166 0.00122686 0.0173563 -0.0140921 -0.0158573 -0.0193853 -0.016327 -0.00646726 -0.000630517 -0.00247903 -0.000745423 -0.0146987 -0.00656148
internal_weight=15877 8449 6938 3524 7428 2265 5934 3414 2163 5110 4262 3293 3149 3099 543 422 121 28 793 522 271 2556 941 190 1494 66 848 1615 1078 589 537 505 474 489 107 178 180 3469 32 1994 120 395 379 180 199 1402 1385 63 1511 897 410 57 126 93 121 111 61 668 541 475 66 49
internal_count=15877 8449 6938 3524 7428 2265 5934 3414 2163 5110 4262 3293 3149 3099 543 422 121 28 793 522 271 2556 941 190 1494 66 848 1615 1078 589 537 505 474 489 107 178 180 3469 32 1994 120 395 379 180 199 1402 1385 63 1511 897 410 57 126 93 121 111 61 668 541 475 66 49
is_linear=0
shrinkage=0.04


Tree=6
num_leaves=63
num_cat=0
split_feature=0 9 2 7 0 2 1 1 2 1 0 1 4 9 7 1 9 2 2 5 0 7 2 4 2 4 9 0 2 2 7 2 7 5 5 4 4 9 2 1 4 5 1 2 9 9 4 4 5 5 4 5 5 5 4 4 0 2 9 4 2 2
split_gain=84.7805 56.841 46.789 31.0024 22.8289 21.4574 25.3007 19.563 13.7961 13.4805 11.7407 11.5823 10.2389 14.0392 10.2308 9.53397 9.45094 15.2816 9.18868 8.93028 8.89052 9.74081 11.6423 9.76316 8.76937 8.48963 8.42371 8.22449 13.1182 7.79936 7.68349 18.2214 9.36454 8.62634 14.6937 8.63048 7.92233 7.64251 7.49194 7.43967 9.67968 9.57011 7.41988 14.3283 12.3343 8.3539 7.31149 7.21129 7.1976 7.17057 8.52423 7.02961 7.00781 8.10724 15.0458 9.4133 7.9811 11.2023 13.2035 6.84784 6.93121 11.2168
threshold=57.500000000000007 17.500000000000004 43.500000000000007 4.5000000000000009 97.500000000000014 32.500000000000007 7.5000000000000009 13.500000000000002 30.500000000000004 10.500000000000002 74.500000000000014 4.5000000000000009 0.054611694067716605 12.500000000000002 2.5000000000000004 1.5000000000000002 4.5000000000000009 29.500000000000004 41.500000000000007 269.50000000000006 81.500000000000014 7.5000000000000009 27.500000000000004 0.2032468989491463 58.500000000000007 0.10773989185690881 14.500000000000002 139.50000000000003 22.500000000000004 36.500000000000007 5.5000000000000009 69.500000000000014 1.5000000000000002 153.50000000000003 21.500000000000004 0.094395272433757796 0.047760678455233581 16.500000000000004 71.500000000000014 5.5000000000000009 0.067777965217828764 392.50000000000006 4.5000000000000009 22.500000000000004 7.5000000000000009 1.0000000180025095e-35 0.19138453900814059 0.11465835198760034 227.50000000000003 4768.5000000000009 0.20221622288227084 1324.5000000000002 2413.0000000000005 243.50000000000003 0.15979166328907016 0.15891529619693759 51.500000000000007 35.500000000000007 10.500000000000002 0.23211572319269183 39.500000000000007 55.500000000000007
decision_type=2 2 2 2 2 2 2 2 2 2 2 2 2 2 2 2 2 2 2 2 2 2 2 2 2 2 2 2 2 2 2 2 2 2 2 2 2 2 2 2 2 2 2 2 2 2 2 2 2 2 2 2 2 2 2 2 2 2 2 2 2 2
left_child=1 2 3 7 5 6 10 8 -1 30 16 37 13 -13 49 -6 17 -2 52 24 21 22 -8 -23 48 -19 -16 -17 -29 -28 32 -32 33 34 35 -4 -35 46 39 59 41 -41 43 44 -12 -44 -5 -31 -11 -10 -51 -47 53 55 -55 56 57 58 -14 60 -3 -62
right_child=4 38 9 11 15 -7 20 -9 14 19 42 12 18 -15 26 27 -18 25 -20 -21 -22 23 -24 -25 -26 -27 29 28 -30 47 31 -33 -34 36 -36 -37 -38 -39 -40 40 -42 -43 45 -45 -46 51 -48 -49 -50 50 -52 -53 -54 54 -56 -57 -58 -59 -60 -61 61 -63
leaf_value=-0.023259079726102451 -0.019949949549472271 -0.0014871226362570998 0.040819969984201288 -0.0012327079236651389 0.018916771884513114 0.0039801184773196729 -0.01532331057287659 -0.020299526598475396 -0.0059491264928643621 -0.006536742083675222 0.0081480995883112372 -0.04701540724436442 -0.026221585500719291 0.0056938180381601502 0.0088606469398533755 0.0060955479453107045 0.0022559311185285551 -0.025420073573788008 -0.0053522454044398135 -0.0089030382857319852 -0.0019922730215520845 -0.034760510995652937 -0.0013403118933856303 -0.0073975934403992839 0.0047946476317829818 0.011693413237008182 -0.023099471364702497 0.055229126900434487 0.010905317793874181 0.013112042136117816 -0.0043514806061871044 0.0072462497046730644 0.0039315595747761575 0.022892401553117316 -0.009819948252993373 0.0035927669522554983 0.00030107239974174827 -0.019863355721812696 0.015232998677135743 -0.051925893295894955 0.0014520021830215224 0 -0.018541584573189419 0.0070210953822554684 0.049910167726278307 0.008029386594234144 -0.020155141507967926 -0.012578201122822302 0.015540264316797257 0.03746251374941606 0.00048820667266845705 -0.0058340997212073392 -0.027496757332831627 -0.0041749562437151683 -0.03428787636756897 -0.0067391289599014054 -0.011946565158054477 -0.021242143728598225 -0.071155851002037529 -0.0074097820023695631 0.013420313144482377 0.0022752411451035489
leaf_weight=47 95 118 11.999999999999998 206 112 3797 158 108 509 420 22 35 27 9.9999999999999982 219 1319 293 10.999999999999998 118 627 504 44 240 41 198 54 27 12.999999999999998 50 39 1472 253 921 25 317 45 566 63 96 10.000000000000002 613 11.999999999999998 29 352 24 186 38 30 24 11.999999999999998 44 84 99 161 31 65 60 91 19 53 370 239
leaf_count=47 95 118 12 206 112 3797 158 108 509 420 22 35 27 10 219 1319 293 11 118 627 504 44 240 41 198 54 27 13 50 39 1472 253 921 25 317 45 566 63 96 10 613 12 29 352 24 186 38 30 24 12 44 84 99 161 31 65 60 91 19 53 370 239
internal_value=0.000172723 -0.00256754 -0.00409891 -0.00915625 0.00329011 0.00217576 -0.00102869 -0.00426355 -0.00237111 -0.00196387 0.00300009 -0.0140934 -0.0168859 -0.0353461 -0.00122583 0.0077091 -0.00200408 -0.00979564 -0.0155912 -0.005509 -0.00572514 -0.00959988 -0.00692587 -0.0218479 -0.00217936 0.00506207 0.00453517 0.00678489 0.020834 -0.0052807 -0.000715723 -0.00264495 0.00104716 -0.0017028 -0.00645018 0.0120677 0.00130052 -0.00753401 0.00445938 0.00371539 0.000492276 -0.0249757 0.00625638 0.00982859 0.0306204 0.00147116 -0.00426621 0.00186511 -0.00530216 -0.00444712 0.00899968 0.00369593 -0.0177551 -0.0155663 -0.00921013 -0.0201564 -0.0245068 -0.0298522 -0.0459856 0.00633022 0.00734619 0.00906392
internal_weight=15877 8449 6938 2058 7428 5934 2137 1035 927 4880 1150 1023 716 45 880 1494 453 160 671 1269 987 483 398 85 642 65 315 1382 63 96 3611 1725 1886 965 374 57 591 307 1511 1415 635 22 697 398 46 299 244 69 444 565 56 270 553 454 192 262 197 137 46 780 727 609
internal_count=15877 8449 6938 2058 7428 5934 2137 1035 927 4880 1150 1023 716 45 880 1494 453 160 671 1269 987 483 398 85 642 65 315 1382 63 96 3611 1725 1886 965 374 57 591 307 1511 1415 635 22 697 398 46 299 244 69 444 565 56 270 553 454 192 262 197 137 46 780 727 609
is_linear=0
shrinkage=0.04


Tree=7
num_leaves=63
num_cat=0
split_feature=9 2 1 7 7 2 1 2 2 5 5 9 5 2 5 2 1 2 9 5 5 2 2 3 1 2 5 1 7 9 2 2 2 3 2 2 5 5 1 9 1 3 9 2 1 2 7 1 7 7 3 2 5 1 9 5 7 5 5 1 5 3
split_gain=45.9343 23.7263 20.8547 22.508 28.3512 20.8845 18.6278 10.6778 10.6099 9.19015 14.6465 12.306 11.2228 10.381 9.14307 11.3007 9.04309 9.03133 7.72263 7.50611 7.32172 7.1373 7.92088 8.51266 14.1258 8.45402 8.30967 6.96591 8.20571 7.96362 7.42013 9.03738 6.64921 9.0192 6.85249 8.75782 10.8447 9.20179 6.32777 7.40266 6.28912 6.25703 6.20423 7.78221 7.32566 6.03603 6.03191 5.95115 5.88179 10.3098 6.92626 6.88282 8.88936 9.74209 6.8528 8.31821 17.5689 6.9276 7.80334 5.77554 5.62314 5.61307
threshold=18.500000000000004 22.500000000000004 9.5000000000000018 5.5000000000000009 2.5000000000000004 69.500000000000014 3.5000000000000004 20.500000000000004 71.500000000000014 444.50000000000006 1756.0000000000002 14.500000000000002 192.50000000000003 23.500000000000004 3659.0000000000005 38.500000000000007 5.5000000000000009 27.500000000000004 12.500000000000002 3789.0000000000005 25198.000000000004 49.500000000000007 44.500000000000007 7.5000000000000009 8.5000000000000018 20.500000000000004 856.50000000000011 5.5000000000000009 8.5000000000000018 4.5000000000000009 33.500000000000007 53.500000000000007 51.500000000000007 9.5000000000000018 46.500000000000007 43.500000000000007 882.00000000000011 483.50000000000006 12.500000000000002 16.500000000000004 8.5000000000000018 5.5000000000000009 2.5000000000000004 36.500000000000007 27.500000000000004 30.500000000000004 7.5000000000000009 13.500000000000002 7.5000000000000009 6.5000000000000009 7.5000000000000009 54.500000000000007 161.50000000000003 11.500000000000002 13.500000000000002 1854.5000000000002 8.5000000000000018 21.500000000000004 1911.5000000000002 9.5000000000000018 9155.5000000000018 13.500000000000002
decision_type=2 2 2 2 2 2 2 2 2 2 2 2 2 2 2 2 2 2 2 2 2 2 2 2 2 2 2 2 2 2 2 2 2 2 2 2 2 2 2 2 2 2 2 2 2 2 2 2 2 2 2 2 2 2 2 2 2 2 2 2 2 2
left_child=1 6 3 4 19 9 7 -1 42 12 32 13 -5 -12 15 -13 -2 -16 -14 -3 45 22 23 25 -25 26 -18 28 -15 -30 -29 -32 33 34 35 37 -37 -11 40 -40 -8 -7 43 -4 48 -21 -39 -41 49 60 51 54 53 -53 57 56 -56 -50 -59 -42 61 -44
right_child=16 2 8 5 -6 41 38 -9 -10 10 11 14 18 27 17 -17 21 -19 -20 20 -22 -23 -24 24 -26 -27 -28 30 29 -31 31 -33 -34 -35 -36 36 -38 46 39 47 59 -43 44 -45 -46 -47 -48 -49 50 -51 -52 52 -54 -55 55 -57 -58 58 -60 -61 -62 -63
leaf_value=0.049243590008128772 0.0076103725482546108 -0.0017339565412462898 -0.015912667068608461 -0.0028359507010639723 0.0057299613830043847 0.014083059500168709 0.0067515842713076956 0.015178968311502384 0.0051307135661980054 0.021946840674788866 0.033740558422528787 -0.0081897247028350825 -0.012616657304649889 -0.0091307592632500368 -0.038058479776749247 -0.036147394097369653 -0.048486842762340186 -0.003183487876393908 -0.002735823493510012 -0.0063777648929668517 -0.010528712013228374 0.0067260766463088139 -0.007280371271470595 0.035861306530237197 0.003998945577939352 0.001414869045425729 -0.0022540066242218017 0.012645343211697944 -0.0057246005304005688 0.018660644349298979 -0.0071042343070599392 0.011863371081650255 0.0078626206791598853 0.016142883279809245 -0.0081970572552373337 -0.0029468862681553284 0.030236076177869525 0.001643197387090472 0.0062290055661173597 0.00065759249528249105 -0.014918640886134696 0.0029111909839376134 -0.0031488192720808524 -0.0043326607248172734 0.022853585502680608 0.0093777695644899194 -0.0086289465538647078 0.035998962203661597 -0.034503567639986681 0.0042757470164261754 0.0034926500378585448 0.047584999947498229 -0.0074357648950356707 -0.0019712702546800889 -0.061833942386839126 -0.0027888852813664606 -0.015942029666092435 -0.0034179989175127552 -0.021512623942416646 0.00035203908775479362 -0.016977290533635083 -0.028592144872461051
leaf_weight=21 1240 2058 146 1361 1885 136 175 51 221 26 11.999999999999998 49 398 288 11.999999999999998 45 10.000000000000002 147 188 45 43 447 168 29 89 441 14.999999999999998 80 48 37 141 55 270 53 154 28 34 243 170 10.999999999999998 52 198 2791 259 15.999999999999998 250 145 26 13.999999999999998 299 81 11.000000000000002 51 12.999999999999998 17 33 58 232 45 155 48 12.999999999999998
leaf_count=21 1240 2058 146 1361 1885 136 175 51 221 26 12 49 398 288 12 45 10 147 188 45 43 447 168 29 89 441 15 80 48 37 141 55 270 53 154 28 34 243 170 11 52 198 2791 259 16 250 145 26 14 299 81 11 51 13 17 33 58 232 45 155 48 13
internal_value=0.000165172 -0.000751281 -0.00113403 2.62388e-05 0.00206111 -0.0020729 0.00663172 0.0257077 -0.00338373 -0.00291407 -0.000905515 -0.00452232 -0.00483659 -0.00163707 -0.0120086 -0.0218554 0.00521437 -0.00606198 -0.00946357 -0.000824796 0.00468785 0.00272883 0.000341719 0.00254991 0.0120987 0.000102683 -0.0220546 -0.00234826 -0.0059096 0.0049372 0.00245422 -0.00172819 0.00256019 0.000449786 -0.000887579 0.00148109 0.0153778 -0.000622461 0.00425344 0.0098703 0.00118149 0.00750062 -0.00384178 -0.00854595 -0.00332668 0.00694744 -0.00219765 0.0258911 -0.00344692 -0.00277442 -0.00724601 -0.00909301 0.0019574 0.0215769 -0.0111799 -0.0197836 -0.0270736 -0.00791619 -0.00643876 -0.00351812 -0.00351619 -0.00327836
internal_weight=15877 13438 12777 8429 4281 4148 661 72 4348 3814 1867 914 1947 661 253 94 2439 159 586 2396 338 1199 752 584 118 466 25 649 373 85 276 196 953 683 630 476 62 414 589 207 382 334 4127 405 3722 295 388 37 3706 3151 555 474 75 24 399 108 75 291 277 207 2852 2804
internal_count=15877 13438 12777 8429 4281 4148 661 72 4348 3814 1867 914 1947 661 253 94 2439 159 586 2396 338 1199 752 584 118 466 25 649 373 85 276 196 953 683 630 476 62 414 589 207 382 334 4127 405 3722 295 388 37 3706 3151 555 474 75 24 399 108 75 291 277 207 2852 2804
is_linear=0
shrinkage=0.04


Tree=8
num_leaves=63
num_cat=0
split_feature=0 9 2 1 0 2 2 7 0 1 5 0 1 2 1 1 4 2 5 5 0 2 2 4 4 9 2 2 1 1 4 4 9 4 2 4 9 7 7 4 8 4 4 0 2 2 2 5 5 0 2 4 4 2 4 7 5 4 5 5 0 8
split_gain=78.8683 50.07 39.1163 28.0403 18.2038 19.4668 15.4919 17.0583 14.3785 20.0349 16.6939 13.6536 12.8056 12.3033 11.9153 11.7392 11.2647 11.1477 10.3251 11.1809 9.99646 19.7926 12.8809 10.554 9.5396 9.40374 9.24093 9.07182 8.39133 8.3822 9.19598 8.34398 7.91946 11.9304 8.40467 10.185 8.40955 7.85811 9.70762 7.8502 10.5561 8.57846 7.78637 7.62023 12.1053 7.42087 7.36394 7.35885 19.2206 9.40516 7.43151 7.4145 13.6166 10.1185 7.06447 6.9274 9.12111 6.91374 6.66145 11.3987 6.60452 6.4986
threshold=61.500000000000007 17.500000000000004 43.500000000000007 4.5000000000000009 97.500000000000014 29.500000000000004 33.500000000000007 5.5000000000000009 81.500000000000014 4.5000000000000009 273.50000000000006 51.500000000000007 1.5000000000000002 35.500000000000007 10.500000000000002 13.500000000000002 0.33628895878791815 22.500000000000004 571.00000000000011 747.50000000000011 53.500000000000007 27.500000000000004 26.500000000000004 0.1613685414195061 0.15174131095409396 7.5000000000000009 28.500000000000004 30.500000000000004 1.5000000000000002 4.5000000000000009 0.2727144211530686 0.25980092585086828 12.500000000000002 0.056256538257002837 41.500000000000007 0.14491937309503558 7.5000000000000009 5.5000000000000009 2.5000000000000004 0.12666221708059314 1.0000000180025095e-35 0.13985814154148105 0.083231460303068175 139.50000000000003 22.500000000000004 54.500000000000007 64.500000000000014 399.50000000000006 1191.5000000000002 51.500000000000007 44.500000000000007 0.07998081669211389 0.061190711334347732 49.500000000000007 0.087214969098567977 7.5000000000000009 4557.0000000000009 0.13895794004201892 473.50000000000006 1382.5000000000002 56.500000000000007 1.0000000180025095e-35
decision_type=2 2 2 2 2 2 2 2 2 2 2 2 2 2 2 2 2 2 2 2 2 2 2 2 2 2 2 2 2 2 2 2 2 2 2 2 2 2 2 2 2 2 2 2 2 2 2 2 2 2 2 2 2 2 2 2 2 2 2 2 2 2
left_child=1 2 3 37 5 8 20 15 10 17 -2 13 -12 57 39 24 -11 25 -16 45 22 -22 -5 54 -8 -10 -19 -3 -6 -29 31 -31 33 -15 35 -35 -37 38 60 47 41 -41 -24 -30 -45 -20 55 50 49 -49 -4 52 -50 -54 -23 -7 -57 -9 -17 -60 -1 -34
right_child=4 27 14 6 28 46 7 11 9 16 12 -13 -14 32 18 58 -18 26 19 -21 21 23 42 -25 -26 -27 -28 29 43 30 -32 -33 61 34 -36 36 -38 -39 -40 40 -42 -43 -44 44 -46 -47 -48 48 51 -51 -52 -53 53 -55 -56 56 -58 -59 59 -61 -62 -63
leaf_value=-0.0081699621741162243 -0.013566144149764529 -0.016961827484890821 0.010085097583762385 0.0010357354590296746 0.017886891721624189 0.0041862563550822138 -0.0042862021855087076 -0.048318187949061397 0.0095434295166106457 -0.00050667376033726431 0.013952322776247928 -0.003658989520556123 -0.0039578359261912138 -0.041496401517621927 -0.0021503372100764636 -0.023919357823947118 -0.032673044754399194 0.0043850354125750243 -0.012415936933670726 -0.0071411445622818672 -0.042647406714161236 -0.01854405646150311 -0.055938419090376959 -0.018450919285600567 0.0089575482905226746 0.047234537454843517 0.034987767342064116 0.0075700903017151891 0.0058387359283490559 0.0014392008976001815 0.023525879216194152 -0.033627460956573485 -0.012781733445823191 -0.013303705273139657 -0.0039045609652996068 -0.023242751368662207 -0.059172938413918019 -0.0065940498668543082 0.0060732801486425396 0.013317005366086961 -0.001597478066356972 0.0028011103305336715 -0.026416103539847528 0.053069899203521863 0.010484354725071029 -0.041294938272900046 0.0094870249862904141 0.0041755605177002273 0.012476406986514728 0.024451138728857038 -0.0046792165400355032 -0.0034399692074063098 -0.048918687148527658 -0.012852543233018933 0.0059946988513693211 0.00094985646911610339 -0.016583971284903014 -0.016815577084367924 0.018338873800777252 -0.021266312842185681 0.0093535893921341227 0.0088047944951701821
leaf_weight=188 264 31 56 24 112 2730 330 29 20 553 76 168 373 30 854 62 17 137 34 451 29 23 17 80 117 24 17 763 1319 802 29 9.9999999999999982 55 131 79 40 14.999999999999998 360 282 151 856 692 118 12.999999999999998 50 26 344 459 17 39 1228 279 21 32 85 542 51 21 20 25 41 36
leaf_count=188 264 31 56 24 112 2730 330 29 20 553 76 168 373 30 854 62 17 137 34 451 29 23 17 80 117 24 17 763 1319 802 29 10 55 131 79 40 15 360 282 151 856 692 118 13 50 26 344 459 17 39 1228 279 21 32 85 542 51 21 20 25 41 36
internal_value=0.000158486 -0.00223204 -0.0035984 -0.0078154 0.0034827 0.0023526 -0.011069 -0.00875832 -0.00151522 0.00227747 -0.00560354 -0.0134057 -0.000893115 -0.0171351 -0.00164427 -0.00366931 -0.00152857 0.013207 -0.00485202 -0.00934633 -0.0181326 -0.0124195 -0.0257782 -0.00753459 -0.000798532 0.0307839 0.007993 0.00411511 0.00736992 0.00453527 0.00177144 0.000961594 -0.0146268 -0.017806 -0.0149631 -0.0195926 -0.033995 -0.00207453 0.00110833 -0.000499021 0.00152724 0.00470303 -0.0305471 0.00650239 0.0200263 -0.0254676 0.00391578 -0.00211635 0.000773399 0.00581724 -0.00402483 -0.00640846 -0.0179686 -0.0278582 0.00060997 0.00333516 -0.000576758 -0.0357547 -0.0155067 -0.00356104 -0.00498814 -0.00419565
internal_weight=15877 9235 7600 2405 6642 5148 1534 1158 1481 768 713 604 449 436 5195 554 570 198 1365 511 376 217 159 188 447 44 154 1635 1494 1604 841 812 386 295 265 186 55 871 511 3830 1699 843 135 1382 63 60 3667 2131 847 498 1284 349 70 53 108 3323 593 50 107 45 229 91
internal_count=15877 9235 7600 2405 6642 5148 1534 1158 1481 768 713 604 449 436 5195 554 570 198 1365 511 376 217 159 188 447 44 154 1635 1494 1604 841 812 386 295 265 186 55 871 511 3830 1699 843 135 1382 63 60 3667 2131 847 498 1284 349 70 53 108 3323 593 50 107 45 229 91
is_linear=0
shrinkage=0.04


Tree=9
num_leaves=63
num_cat=0
split_feature=0 2 0 7 7 2 2 2 7 7 0 0 7 2 5 0 4 5 2 2 8 5 4 5 5 2 3 7 0 0 2 3 5 3 4 0 5 0 2 4 5 7 2 5 2 3 5 5 5 2 3 4 2 5 4 4 5 4 4 4 4 3
split_gain=73.1517 41.9881 18.9932 18.5538 21.39 18.4036 18.1774 17.9968 15.224 15.0862 10.6562 10.5343 9.02825 8.82715 18.105 8.48106 8.42522 10.2258 13.6587 10.1182 9.93719 9.72923 7.77353 7.76824 8.65402 9.91628 7.39273 8.9712 8.5142 12.2197 7.8217 7.08572 6.93269 6.87752 6.97915 8.24374 8.77753 6.11833 11.3153 6.1105 7.51772 6.72751 6.68306 6.65767 6.25741 6.09125 6.02699 5.99389 7.94027 5.98779 5.98596 10.1523 13.2945 7.80855 9.47415 8.799 7.26255 5.88194 7.87245 5.7633 6.70454 7.16378
threshold=57.500000000000007 40.500000000000007 97.500000000000014 5.5000000000000009 2.5000000000000004 32.500000000000007 71.500000000000014 30.500000000000004 4.5000000000000009 2.5000000000000004 56.500000000000007 81.500000000000014 1.5000000000000002 27.500000000000004 273.50000000000006 51.500000000000007 0.23367733508348468 2701.0000000000005 63.500000000000007 75.500000000000014 1.0000000180025095e-35 273.50000000000006 0.15815388411283496 360.00000000000006 1297.0000000000002 37.500000000000007 8.5000000000000018 6.5000000000000009 50.500000000000007 56.500000000000007 29.500000000000004 6.5000000000000009 9155.5000000000018 6.5000000000000009 0.16396625339984897 68.500000000000014 841.50000000000011 139.50000000000003 22.500000000000004 0.14056926220655444 565.50000000000011 7.5000000000000009 60.500000000000007 611.50000000000011 47.500000000000007 10.500000000000002 882.00000000000011 11.500000000000002 8.5000000000000018 55.500000000000007 5.5000000000000009 0.082152865827083602 34.500000000000007 91.500000000000014 0.13121913373470309 0.1675011292099953 1405.5000000000002 0.19926068931818011 0.21511263400316241 0.31007719039916998 0.27706772089004522 7.5000000000000009
decision_type=2 2 2 2 2 2 2 2 2 2 2 2 2 2 2 2 2 2 2 2 2 2 2 2 2 2 2 2 2 2 2 2 2 2 2 2 2 2 2 2 2 2 2 2 2 2 2 2 2 2 2 2 2 2 2 2 2 2 2 2 2 2
left_child=1 7 5 4 16 11 57 26 9 10 23 13 -13 14 -2 50 17 19 -19 45 -21 -22 -17 -9 25 -25 27 -1 -29 -30 -28 -23 -14 34 35 -15 -37 -4 -39 40 -7 -41 -43 -42 -45 -3 -36 48 -6 -47 53 52 -52 54 -10 -55 -53 -5 -59 60 61 -16
right_child=2 3 37 6 47 39 -8 8 15 -11 -12 12 32 33 59 22 -18 18 -20 20 21 31 -24 24 -26 -27 30 28 29 -31 -32 -33 -34 -35 46 36 -38 38 -40 41 43 42 -44 44 -46 49 -48 -49 -50 -51 51 56 -54 55 -56 -57 -58 58 -60 -61 -62 -63
leaf_value=-0.0092254316713096512 -0.017920031001941228 -0.0019595713836249111 0.006513465446024414 -0.0048746043256514254 0.0054786406287125168 0.00360585778269996 0.0059023377692586252 -0.013557631815066364 -0.043961712274806837 0.0046395244889475143 0.013908309970353101 -0.0043629484036937357 0.0053338689983745378 -0.0058228682505677603 0.001607840976122459 0.0017831395911708688 -0.0097852558022292931 0.0098821219247196036 -0.016881258979013988 0.04053447349369526 0.019041161157416577 0.0037434813790023324 -0.014820752394244525 0.016961640928206699 -0.009368269457003555 -0.008918810907115297 -0.017950785951954977 -0.0066400748522658093 -0.06460655969381332 -0.016366142757236961 -0.066380882891741655 -0.038096120227466924 -0.017992467414765134 0.0043022230787730133 -0.019124661424142472 0.014127793111977108 -0.010417235851287843 0.05109873060030596 0.010188080724742679 0.0053594283157462419 -0.035497440565716139 -0.00091476049876909984 0.012322439969017884 -0.0068279803063282197 0.0084727067649364475 -0.017763804371953011 -0.0041127652602870601 0.0051185202574216384 -0.040114651449702006 0.0052528599177797631 -0.052955047474187965 0 -0.013182654802460928 -0.0082119164646958284 -0.010897666653761498 -0.027836752949976451 -0.014508741761656369 0.011478362650576843 -0.0027647283754455364 -0.018961398582373348 0.027060305033411298 -0.016079244227233256
leaf_weight=98 173 1497 1428 2490 13.000000000000002 422 315 234 34 289 36 241 664 151 217 141 180 236 34 14.999999999999998 32 15 65 55 147 40 13 18 17 18 10 10 20 278 67 93 30 12.999999999999998 53 2516 9.9999999999999982 525 68 203 53 74 120 1419 9.9999999999999982 23 15.999999999999998 158 73 138 25 50 84 82 245 27 12.999999999999998 43
leaf_count=98 173 1497 1428 2490 13 422 315 234 34 289 36 241 664 151 217 141 180 236 34 15 32 15 65 55 147 40 13 18 17 18 10 10 20 278 67 93 30 13 53 2516 10 525 68 203 53 74 120 1419 10 23 16 158 73 138 25 50 84 82 245 27 13 43
internal_value=0.000151232 -0.00239416 0.00304696 -0.000947093 0.00102836 0.00203043 -0.00319212 -0.00789182 -0.00653894 -0.00264875 -0.00677146 -0.000937132 0.00227359 -0.00339071 -0.00765219 -0.0104999 -0.00153038 -0.000756163 0.0064473 -0.00192916 0.0126267 0.00464132 -0.00348292 -0.00836974 -0.00330174 0.00604355 -0.0200849 -0.0166142 -0.0297784 -0.0410521 -0.0410625 -0.0136601 0.0046207 -0.00065108 -0.00364961 0.000407281 0.00807321 0.00707778 0.0189483 0.00370147 0.000283635 0.00445619 0.00061462 -0.00496574 -0.00362405 -0.00259665 -0.00958575 0.0047843 -0.0150233 -0.0122675 -0.0129836 -0.00939267 -0.0208861 -0.0177223 -0.0304333 -0.0135721 -0.00508071 -0.00421223 0.000818844 -0.00167791 7.9806e-05 -0.0013524
internal_weight=15877 8449 7428 6690 3558 5934 3132 1759 1585 801 512 2137 925 1212 473 784 2116 1936 270 1666 72 57 206 476 242 95 174 151 53 35 23 25 684 739 461 274 123 1494 66 3797 688 3109 593 266 256 1594 187 1442 23 97 578 331 89 247 59 188 242 2817 327 300 273 260
internal_count=15877 8449 7428 6690 3558 5934 3132 1759 1585 801 512 2137 925 1212 473 784 2116 1936 270 1666 72 57 206 476 242 95 174 151 53 35 23 25 684 739 461 274 123 1494 66 3797 688 3109 593 266 256 1594 187 1442 23 97 578 331 89 247 59 188 242 2817 327 300 273 260
is_linear=0
shrinkage=0.04


Tree=10
num_leaves=63
num_cat=0
split_feature=0 9 7 7 1 0 1 5 9 3 1 7 0 8 9 5 5 3 0 0 0 9 9 0 3 1 9 7 1 3 1 5 5 0 7 5 1 5 7 5 9 1 5 5 7 7 3 3 5 0 0 5 5 5 3 3 0 5 9 5 1 5
split_gain=76.1953 60.2087 14.0173 37.2251 15.0116 13.6152 13.7174 11.0905 9.62881 8.76949 9.57333 9.05488 8.50412 7.30774 7.59688 7.615 9.15975 6.74232 6.73861 6.62666 7.45439 9.57224 7.78367 6.87995 6.424 8.12069 6.36317 6.18893 5.91338 6.91581 7.77529 7.27599 14.4586 11.3575 5.95735 5.82863 5.80028 7.99943 8.22457 6.87032 5.71307 9.8489 7.42963 8.23958 5.56251 8.58292 5.50796 9.79891 10.6981 6.68064 7.71772 12.1613 11.014 6.4968 6.60295 6.0397 6.81898 8.22881 5.98793 5.21561 5.20467 11.86
threshold=57.500000000000007 17.500000000000004 3.5000000000000004 2.5000000000000004 1.5000000000000002 97.500000000000014 9.5000000000000018 3968.0000000000005 20.500000000000004 10.500000000000002 5.5000000000000009 1.0000000180025095e-35 63.500000000000007 1.0000000180025095e-35 18.500000000000004 468.50000000000006 212.50000000000003 9.5000000000000018 139.50000000000003 60.500000000000007 59.500000000000007 7.5000000000000009 13.500000000000002 62.500000000000007 5.5000000000000009 5.5000000000000009 2.5000000000000004 9.5000000000000018 8.5000000000000018 6.5000000000000009 11.500000000000002 780.00000000000011 882.00000000000011 50.500000000000007 5.5000000000000009 17684.500000000004 1.5000000000000002 2938.5000000000005 7.5000000000000009 29.500000000000004 6.5000000000000009 2.5000000000000004 57.500000000000007 3860.5000000000005 4.5000000000000009 2.5000000000000004 7.5000000000000009 8.5000000000000018 2938.5000000000005 84.500000000000014 79.500000000000014 578.50000000000011 1228.5000000000002 1467.0000000000002 11.500000000000002 9.5000000000000018 79.500000000000014 383.50000000000006 14.500000000000002 21.500000000000004 7.5000000000000009 25.500000000000004
decision_type=2 2 2 2 2 2 2 2 2 2 2 2 2 2 2 2 2 2 2 2 2 2 2 2 2 2 2 2 2 2 2 2 2 2 2 2 2 2 2 2 2 2 2 2 2 2 2 2 2 2 2 2 2 2 2 2 2 2 2 2 2 2
left_child=1 2 3 4 -1 6 8 19 12 11 -11 60 -2 14 35 16 -16 44 27 20 -8 -22 -23 -21 25 36 -15 -7 -3 30 34 -32 -33 -34 -30 -14 -4 39 -39 -38 41 -28 -43 -44 45 -9 49 58 53 50 -25 -52 -53 54 55 -49 57 -57 -48 -51 61 -6
right_child=5 28 24 -5 9 18 7 17 -10 10 -12 -13 13 26 15 -17 -18 -19 -20 23 21 22 -24 46 -26 -27 40 -29 29 -31 31 32 33 -35 -36 -37 37 38 -40 -41 -42 42 43 -45 -46 -47 47 48 -50 59 51 52 -54 -55 -56 56 -58 -59 -60 -61 -62 -63
leaf_value=-0.015104786200864641 0.0063080442391841088 0.0060861248305640906 -0.011392576640016503 0.0037719454365560492 0.015991951874353819 0.0062276778829338545 0.00051810106933685655 -0.012416014246562475 0.031121611300110819 -0.027068840022509297 -0.0056489266125566281 0.0034358253876842159 0.0031661019469324844 0.0058992943916231708 0.0080475529897503749 0.0051690815408069347 0.036715291608782376 0.0089119128099445152 0.018326841206407884 0.0077724146079749638 8.0837502744462758e-05 -0.050941941039902822 -0.015728933342297871 -0.0015899073328032637 -0.0046006805180890918 -0.010387713554630534 -0.022187932048852627 -0.0063066751061741158 0.010140335682276133 -0.0049920676919650662 -0.001489844105592588 0.059966463178396226 0.0044680258230916387 0.049079972971569408 -0.0098415771113402797 -0.016705219810207686 0.014953473574348859 -0.00057539481946400242 0.029879860694209733 -0.0056664223270181261 0.00027664018916212946 0.0099606170028448109 -0.010145190611971834 0.016577482609521778 -0.0049309507740148599 -0.045528650327523547 0.0093745437964308474 -0.0055142501480337502 -0.026587113584790913 -0.01784255437474502 0.0004992439623148937 -0.0434556900036746 -0.0074118465818464761 0.021671596739441159 -0.026907901241229132 0.041370799779891963 -0.0016836528278887273 0.0031759513632247322 0.03277739330209218 0.0035277275173421501 -0.0065550437407402859 -0.0034632562466592443
leaf_weight=223 1061 1096 134 1069 53 1358 130 92 19 53 91 261 1348 220 40 129 33 32 70 233 44 12.999999999999998 44 527 2189 900 51 65 36 195 40 10.999999999999998 57 9.9999999999999982 66 23 27 34 23 330 716 54 151 20 137 13.999999999999998 60 68 20 18 52 28 27 26 11.999999999999998 18 34 18 25 456 929 693
leaf_count=223 1061 1096 134 1069 53 1358 130 92 19 53 91 261 1348 220 40 129 33 32 70 233 44 13 44 527 2189 900 51 65 36 195 40 11 57 10 66 23 27 34 23 330 716 54 151 20 137 14 60 68 20 18 52 28 27 26 12 18 34 18 25 456 929 693
internal_value=-0.000104449 -0.00269149 -0.00425301 -0.00239219 -0.00525557 0.00283936 0.0019863 -0.000591024 0.00340615 -0.00419095 -0.0136925 -0.00347545 0.00326014 0.0020957 0.00389352 0.0111244 0.021382 -0.00807245 0.00625728 0.000520878 -0.00579948 -0.0138956 -0.0245688 0.00142649 -0.00597601 -0.00804778 -0.000235602 0.0056483 0.00454721 0.000468511 0.00532736 0.0122818 0.0193243 0.0118092 -0.00272032 0.00281789 -0.00418563 -0.00182147 0.0119479 -0.00405835 -0.00160476 -0.00648332 -0.00282349 -0.00691827 -0.0103528 -0.0172114 0.000354275 0.00534765 0.000385676 -0.000912169 -0.00359804 -0.0133452 -0.0262812 0.00360626 0.000325659 0.00289912 0.011091 0.0229835 0.0166053 0.00267192 -0.00455616 -0.00205614
internal_weight=16006 8520 7009 3372 2303 7486 5993 2128 3865 2080 144 1936 3846 2785 1573 202 73 275 1493 1853 231 101 57 1622 3637 1448 1212 1423 1511 415 220 118 78 67 102 1371 548 414 57 357 992 276 225 171 243 106 1389 281 196 1108 634 107 55 176 150 138 70 36 85 474 1675 746
internal_count=16006 8520 7009 3372 2303 7486 5993 2128 3865 2080 144 1936 3846 2785 1573 202 73 275 1493 1853 231 101 57 1622 3637 1448 1212 1423 1511 415 220 118 78 67 102 1371 548 414 57 357 992 276 225 171 243 106 1389 281 196 1108 634 107 55 176 150 138 70 36 85 474 1675 746
is_linear=0
shrinkage=0.04


Tree=11
num_leaves=63
num_cat=0
split_feature=0 9 7 7 1 0 1 5 9 3 1 7 0 8 9 5 5 3 0 0 0 7 9 9 0 0 0 1 5 0 1 5 9 7 5 9 0 5 1 0 7 7 9 5 7 7 1 3 1 1 3 7 5 5 5 5 9 1 5 5 7 7
split_gain=70.2087 55.5326 12.9137 34.3146 13.8394 12.5519 12.6657 10.2376 8.91427 8.09837 8.83535 8.34647 7.83474 6.73767 7.02156 7.0384 8.4594 6.2303 6.21984 6.12543 6.89714 9.21571 9.02695 7.41822 6.34402 6.01815 14.7194 8.48718 21.4253 7.92621 11.7727 7.41898 9.94592 6.69122 6.02685 8.74244 7.87571 7.27931 6.35913 6.3229 6.08726 5.94813 5.86592 5.71623 5.70859 5.68072 5.42836 6.40217 7.20385 6.79549 11.734 5.50044 5.38793 5.30805 7.7911 5.49099 5.26592 9.09653 6.85175 7.6152 5.14355 7.96585
threshold=57.500000000000007 17.500000000000004 3.5000000000000004 2.5000000000000004 1.5000000000000002 97.500000000000014 9.5000000000000018 3968.0000000000005 20.500000000000004 10.500000000000002 5.5000000000000009 1.0000000180025095e-35 63.500000000000007 1.0000000180025095e-35 18.500000000000004 468.50000000000006 212.50000000000003 9.5000000000000018 139.50000000000003 60.500000000000007 59.500000000000007 7.5000000000000009 7.5000000000000009 13.500000000000002 62.500000000000007 50.500000000000007 51.500000000000007 9.5000000000000018 118.50000000000001 54.500000000000007 13.500000000000002 52.500000000000007 12.500000000000002 6.5000000000000009 8502.0000000000018 13.500000000000002 56.500000000000007 2550.0000000000005 7.5000000000000009 56.500000000000007 6.5000000000000009 8.5000000000000018 2.5000000000000004 1561.0000000000002 9.5000000000000018 4.5000000000000009 8.5000000000000018 6.5000000000000009 11.500000000000002 12.500000000000002 4.5000000000000009 5.5000000000000009 17684.500000000004 82.500000000000014 203.50000000000003 39.500000000000007 6.5000000000000009 2.5000000000000004 57.500000000000007 3860.5000000000005 4.5000000000000009 2.5000000000000004
decision_type=2 2 2 2 2 2 2 2 2 2 2 2 2 2 2 2 2 2 2 2 2 2 2 2 2 2 2 2 2 2 2 2 2 2 2 2 2 2 2 2 2 2 2 2 2 2 2 2 2 2 2 2 2 2 2 2 2 2 2 2 2 2
left_child=1 2 3 4 -1 6 8 19 12 11 -11 -6 -2 14 52 16 -16 60 44 20 -8 22 -22 -24 -21 31 53 34 29 -29 -31 32 41 -30 35 36 -28 39 43 40 -37 -4 -15 -38 -7 -25 -3 48 51 50 -50 -48 -14 55 -55 -27 57 -44 -59 -60 61 -9
right_child=5 46 25 -5 9 18 7 17 -10 10 -12 -13 13 42 15 -17 -18 -19 -20 24 21 -23 23 45 -26 26 27 28 33 30 -32 -33 -34 -35 -36 37 38 -39 -40 -41 -42 -43 56 -45 -46 -47 47 -49 49 -51 -52 -53 -54 54 -56 -57 -58 58 59 -61 -62 -63
leaf_value=-0.014503291947575886 0.0060559600387803383 0.0058429017533864844 0.0040020619884502794 0.0036212086136722678 -0.0043737714605812687 0.0059787541336110625 0.00049753525389628552 -0.011924713561852133 0.029938989824801684 -0.026006137342088752 -0.0054254255206324167 0.0032989170081799721 0.0030395517908230018 0.005664390360877525 0.0077335022731525151 0.0049639089295497301 0.035289874885012118 0.0085662386104690316 0.017604092608674914 0.0074628466173258211 0.0071952733452382844 -0.037803958150744436 -0.046367060720920561 -0.026781727721914651 0.00033933893298636455 -0.010626639485359189 0.0033807641443453335 -0.017473098278045655 0.0031267762682331145 -0.080240584410153887 -0.019298501589081505 -0.0059148760455137459 -0.011788831317045081 -0.016425652759770551 0.017989658897121747 -0.0035827493830160664 -0.02809478690964835 -0.043684279481952012 0.012453529914220175 0.0084421265602111824 -0.03484837271571159 -0.0091286279339056753 -0.021317482524479812 0.0054081397151405156 -0.0060582303592201436 0.0052125062972307205 0.0097456847187635063 -0.0047934036957746262 0.049294112013445961 0.0051489002573780899 0.0042959386422520588 -0.009453789723898048 -0.016064853223661583 0.0029057584106922147 -0.02408983660176877 -0.048548832772743133 0.00026558996504757196 0.0095694364916194576 -0.0097420527689453026 0.015945959477197558 -0.0047351420650771558 -0.043828914507230116
leaf_weight=223 1061 1096 362 1069 1675 1358 130 92 19 53 91 261 1348 220 40 129 33 32 70 233 37 19 10.999999999999998 14.999999999999998 1389 10.000000000000002 189 18 66 12.000000000000002 9.9999999999999982 2506 103 47 20 21 34 11.999999999999998 10.999999999999998 19 19 64 51 9.9999999999999982 65 19 36 195 17 81 20 66 23 23 61 20 716 54 151 20 137 13.999999999999998
leaf_count=223 1061 1096 362 1069 1675 1358 130 92 19 53 91 261 1348 220 40 129 33 32 70 233 37 19 11 15 1389 10 189 18 66 12 10 2506 103 47 20 21 34 12 11 19 19 64 51 10 65 19 36 195 17 81 20 66 23 23 61 20 716 54 151 20 137 14
internal_value=-0.0001001 -0.00258344 -0.00408311 -0.00229696 -0.00504615 0.00272569 0.00190658 -0.000569917 0.00327092 -0.00402383 -0.013155 -0.00333615 0.00313039 0.00201263 0.0037389 0.0106908 0.0205531 -0.00775796 0.00600748 0.000498297 -0.00557821 -0.0133659 -0.00726797 -0.0191448 0.00136906 -0.00573692 -0.00939915 -0.00633831 -0.0141191 -0.0389122 -0.054757 -0.00500634 -0.000691794 -0.00504331 -0.00274137 -0.00412304 -0.000489961 -0.0163728 -0.0136855 -0.0101158 -0.0190192 0.00200325 -0.00022577 -0.0204406 0.00542225 -0.00915021 0.00436843 0.000460091 0.00513532 0.0118296 0.0258292 -0.00260984 0.00270466 -0.0222978 -0.0167039 -0.0367877 -0.00154047 -0.00622425 -0.00270623 -0.00663911 -0.00995033 -0.0165461
internal_weight=16006 8520 7009 3372 2303 7486 5993 2128 3865 2080 144 1936 3846 2785 1573 202 73 275 1493 1853 231 101 82 45 1622 3637 602 488 153 40 22 3035 529 113 335 315 244 71 55 59 40 426 1212 44 1423 34 1511 415 220 118 37 102 1371 114 84 30 992 276 225 171 243 106
internal_count=16006 8520 7009 3372 2303 7486 5993 2128 3865 2080 144 1936 3846 2785 1573 202 73 275 1493 1853 231 101 82 45 1622 3637 602 488 153 40 22 3035 529 113 335 315 244 71 55 59 40 426 1212 44 1423 34 1511 415 220 118 37 102 1371 114 84 30 992 276 225 171 243 106
is_linear=0
shrinkage=0.04


Tree=12
num_leaves=63
num_cat=0
split_feature=0 2 1 2 2 0 2 1 5 4 1 0 1 7 7 4 4 3 5 3 5 2 1 4 7 3 2 1 2 0 7 4 5 5 5 5 2 5 5 1 0 1 2 2 5 0 2 4 1 2 5 4 4 5 5 5 5 0 4 1 3 3
split_gain=64.7361 44.6169 21.5415 19.3342 16.3493 11.5719 17.6331 12.7904 10.0544 10.8161 15.2826 11.0359 9.91671 11.9342 26.774 10.8026 10.6873 9.90553 14.9674 15.635 9.47484 9.32331 12.5254 9.09328 8.81017 8.4937 9.69694 8.43283 8.82755 16.5144 13.2326 9.60265 8.40547 8.38125 8.32649 8.19598 8.17211 7.7106 8.08468 18.5326 7.67689 7.62366 7.6123 7.96675 7.21458 8.0883 12.4364 8.69685 8.14571 7.00713 6.89144 6.87596 11.7298 9.11497 8.0334 7.17302 6.65671 6.63503 8.42537 8.56123 11.1567 6.52217
threshold=57.500000000000007 43.500000000000007 9.5000000000000018 33.500000000000007 71.500000000000014 97.500000000000014 32.500000000000007 7.5000000000000009 2878.0000000000005 0.18266648799180987 12.500000000000002 85.500000000000014 10.500000000000002 5.5000000000000009 1.5000000000000002 0.047760678455233581 0.056256538257002837 7.5000000000000009 3497.0000000000005 8.5000000000000018 26.500000000000004 56.500000000000007 9.5000000000000018 0.056256538257002837 1.5000000000000002 4.5000000000000009 32.500000000000007 4.5000000000000009 36.500000000000007 55.500000000000007 9.5000000000000018 0.21419225633144381 73.500000000000014 8502.0000000000018 197.50000000000003 39.500000000000007 30.500000000000004 3302.5000000000005 5734.5000000000009 1.0000000180025095e-35 51.500000000000007 1.5000000000000002 30.500000000000004 29.500000000000004 3022.0000000000005 79.500000000000014 24.500000000000004 0.1975284740328789 5.5000000000000009 39.500000000000007 3387.0000000000005 0.17437602579593661 0.16209956258535388 4757.5000000000009 4073.0000000000005 3099.0000000000005 780.00000000000011 70.500000000000014 0.15028729289770129 15.500000000000002 6.5000000000000009 5.5000000000000009
decision_type=2 2 2 2 2 2 2 2 2 2 2 2 2 2 2 2 2 2 2 2 2 2 2 2 2 2 2 2 2 2 2 2 2 2 2 2 2 2 2 2 2 2 2 2 2 2 2 2 2 2 2 2 2 2 2 2 2 2 2 2 2 2
left_child=1 2 17 25 12 6 7 37 9 10 -8 57 13 14 15 -3 34 27 42 -20 -11 51 50 -5 -21 -4 32 40 29 31 -30 -29 -27 -6 -17 -9 -31 44 39 -39 -1 56 43 -19 45 46 47 -2 -48 -26 -23 52 53 -15 -53 -54 -18 -12 -59 60 -60 -42
right_child=5 4 3 23 33 -7 8 35 -10 20 11 -13 -14 21 -16 16 41 18 19 24 -22 22 -24 -25 49 26 -28 28 30 36 -32 -33 -34 -35 -36 -37 -38 38 -40 -41 61 -43 -44 -45 -46 -47 48 -49 -50 -51 -52 54 55 -55 -56 -57 -58 58 59 -61 -62 -63
leaf_value=-0.0053802971910799384 -0.01111100918460976 0.02018937792701106 -0.04570856714248657 -0.036162142726778986 0.0064304970261308348 0.0057676492832537795 0.0038534128723294392 0.0061584437323662523 -8.6769642757453485e-05 -0.0017589629190767598 -0.005307759385465855 0.021992044733630287 -0.0043286164008880038 -0.0014980888135884191 0.005714754142647163 -0.047515620816747345 -0.016618099840236045 0.0054164885779221838 0.012193461355108482 -0.051887945874532056 0.0083994434780763402 -0.010214999101892757 0.012752946720458567 -0.0085723402031073238 -0.0037762564439927375 -0.031644399669170375 -0.037720956023681806 -0.023106566401029177 -0.003829766007993991 -0.020916172876255589 -0.03391856137752533 0.0085541839319116936 -0.0034119695828719577 -0.020546313041134887 -0.0098377448957541903 -0.0057106279747968416 0.012445969254455784 0.057424103260040278 -0.0016352202526397175 0.0090458719119228224 -0.0050989195312140514 -0.0013202786138969394 0.0064787781673296052 -0.042021128134293984 -0.020326523015896481 0.0047306627061389408 -0.0044392335727011746 -0.056085919174281039 0.0081477555913162664 -0.036245588348192331 0.0034790652598907703 0.01300804405193776 -0.031280410422998312 0.028023851569961102 -0.0050266010385067736 0.00029421422547764247 0.00074232306373569199 -0.0030591134363068986 -0.018318412079260896 -0.0074878558953603101 -0.075517157842715579 0.011479846023423697
leaf_weight=521 21.000000000000004 30 28 19 590 1493 1317 103 969 166 123 17 1323 1034 1193 13.999999999999998 106 11 25 13.999999999999998 1216 481 47 578 30 24 36 186 383 14.999999999999998 24 15.999999999999998 54 18 28 876 43 12.999999999999998 89 147 63 811 302 10 26 412 316 9.9999999999999982 110 15.999999999999998 66 111 33 15.999999999999998 60 17 52 25 12.000000000000002 13.999999999999998 10.999999999999998 92
leaf_count=521 21 30 28 19 590 1493 1317 103 969 166 123 17 1323 1034 1193 14 106 11 25 14 1216 481 47 578 30 24 36 186 383 15 24 16 54 18 28 876 43 13 89 147 63 811 302 10 26 412 316 10 110 16 66 111 33 16 60 17 52 25 12 14 11 92
internal_value=-9.68873e-05 -0.00248149 -0.00698501 -0.0127116 -0.000620314 0.00261652 0.00183 -0.00109768 0.00343697 0.00461498 0.00227914 -0.00793352 -0.00131867 -0.000345383 0.00162523 -0.00305856 -0.00377163 -0.00455996 0.000888281 -0.0139364 0.00717598 -0.00270765 -0.00684099 -0.0095161 -0.0249108 -0.025958 -0.0207169 -0.00621753 -0.00940889 -0.0151668 -0.00569263 -0.0205493 -0.0124401 0.00559285 -0.023303 -0.0044528 0.00354176 0.00177142 0.00798223 0.0133337 -0.0030535 -0.00289779 0.00483282 -0.0178743 3.20581e-05 0.000668437 -0.00298739 -0.0270434 -0.00116823 -0.0156859 -0.00855207 -0.000768928 -0.00193311 -0.00101819 0.00666441 -0.0206713 -0.0109107 -0.0108084 -0.0214 -0.0332806 -0.0478477 0.00472625
internal_weight=16006 8520 2490 739 6030 7486 5993 2123 3870 2901 1519 202 5422 4099 2234 1041 1011 1751 408 85 1382 1865 594 597 60 142 114 1343 667 260 407 202 78 608 42 979 58 1144 249 160 676 969 323 21 895 869 457 31 426 46 547 1271 1100 1050 171 50 158 185 62 37 23 155
internal_count=16006 8520 2490 739 6030 7486 5993 2123 3870 2901 1519 202 5422 4099 2234 1041 1011 1751 408 85 1382 1865 594 597 60 142 114 1343 667 260 407 202 78 608 42 979 58 1144 249 160 676 969 323 21 895 869 457 31 426 46 547 1271 1100 1050 171 50 158 185 62 37 23 155
is_linear=0
shrinkage=0.04


Tree=13
num_leaves=63
num_cat=0
split_feature=0 9 7 7 4 0 4 9 3 8 4 3 5 4 4 9 0 0 3 5 7 3 5 4 9 4 5 3 9 0 7 8 4 5 5 7 5 5 5 3 9 5 4 7 3 5 4 5 3 4 4 0 9 5 5 3 5 4 3 5 4 9
split_gain=59.6964 50.1089 11.2779 29.5336 19.7476 10.6694 9.23536 9.16137 8.95005 8.23344 8.54924 7.90516 14.0263 6.42951 8.93995 6.62737 8.73405 9.91473 8.26943 7.09382 5.96416 7.1788 8.32059 8.06971 11.468 6.26645 8.18283 5.91748 5.85333 5.77851 5.71492 5.60905 5.60192 5.94831 6.86076 8.94333 5.79551 7.26181 5.21833 5.14388 5.09389 5.02004 9.76453 4.94806 4.92713 4.91748 7.15628 6.82273 14.7757 11.6081 10.1563 10.8298 9.61154 5.91364 6.19549 6.79635 5.41994 6.31569 5.41878 9.37977 9.91409 8.20211
threshold=57.500000000000007 17.500000000000004 3.5000000000000004 2.5000000000000004 0.36596556007862097 97.500000000000014 0.047760678455233581 20.500000000000004 11.500000000000002 1.0000000180025095e-35 0.20221622288227084 6.5000000000000009 5441.0000000000009 0.20221622288227084 0.21853984892368319 12.500000000000002 50.500000000000007 51.500000000000007 10.500000000000002 1601.5000000000002 1.0000000180025095e-35 10.500000000000002 399.50000000000006 0.24293288588523868 13.500000000000002 0.054611694067716605 203.50000000000003 5.5000000000000009 13.500000000000002 132.50000000000003 9.5000000000000018 1.0000000180025095e-35 0.14953140169382098 383.50000000000006 208.50000000000003 5.5000000000000009 118.50000000000001 59.500000000000007 4757.5000000000009 4.5000000000000009 16.500000000000004 16836.500000000004 0.32183589041233068 6.5000000000000009 14.500000000000002 399.50000000000006 0.25130861997604376 1191.5000000000002 4.5000000000000009 0.13508193939924243 0.13048054277896884 55.500000000000007 14.500000000000002 29.500000000000004 8.5000000000000018 7.5000000000000009 3497.0000000000005 0.11387749761343004 5.5000000000000009 243.50000000000003 0.083231460303068175 11.500000000000002
decision_type=2 2 2 2 2 2 2 2 2 2 2 2 2 2 2 2 2 2 2 2 2 2 2 2 2 2 2 2 2 2 2 2 2 2 2 2 2 2 2 2 2 2 2 2 2 2 2 2 2 2 2 2 2 2 2 2 2 2 2 2 2 2
left_child=1 2 3 4 6 7 -1 9 -6 11 28 12 39 27 40 16 18 -18 -16 -19 25 -22 -23 -24 -25 26 -8 -4 -11 30 -7 -9 -3 34 36 -36 37 -34 -32 -2 -15 42 -14 -41 -12 46 53 48 49 -47 52 -52 56 54 -27 -56 57 -49 59 61 -61 -55
right_child=5 32 13 -5 8 29 20 31 -10 10 44 -13 41 14 15 -17 17 19 -20 -21 21 22 23 24 -26 45 -28 -29 -30 -31 38 -33 33 -35 35 -37 -38 -39 -40 43 -42 -43 -44 -45 -46 47 -48 50 -50 -51 51 -53 -54 58 55 -57 -58 -59 -60 60 -62 -63
leaf_value=0.013766716392172709 0.008044367994667373 0.0062311619284652897 -0.0080809384575301069 0.0033507615487152172 -0.019284174025497015 0.0054828368583086122 -0.044526455972592034 0.0046051727281166948 -0.061086466193199157 -0.0038662851270033177 0.002795811038721448 0.0058913628091478085 -0.013162843254724199 0.01533122382313013 0 0.0049220291424770749 -0.055775369113141848 -0.033734138667583465 -0.022787803830703099 -0.00019335309698663907 0.0031007252064801879 0.0027418899011611938 -0.032809735335875299 0.028964364506981588 -0.025598223894834519 -0.027522146532932917 -0.0077749203125675849 -0.0045552120411902165 0.0010939106151002518 0.015829307154337145 -0.011637460951507091 0.042723410048655097 -0.0018011811050275962 -0.0011655616295304192 0.0073326489499637047 0.051759939720233288 -0.012567102251308306 0.018516353972959067 0.018526181502775713 0.0032302424088980013 -0.0040794433239967594 -0.026612568908267548 0.017399451707090653 -0.0014049996351526339 -0.018258602539698285 -0.0020721542636553446 -0.02591211818110558 -0.01148101584819647 0.0056542232326145594 -0.044118119862344526 -0.003613441289519822 0.02497196212022201 -0.03020638177699821 0.006295807668440778 0.005205926109999418 -0.019076069489165785 -0.030179386321703593 0.009778257329674328 -0.0099589034543833398 0.0058220982253551481 -0.031302281850215156 -0.010511606193970941
leaf_weight=44 233 898 1291 1069 33 1347 13.999999999999998 12 10.999999999999998 942 1292 1058 81 71 171 97 9.9999999999999982 14.999999999999998 29 28 294 49 31 10 13 10.999999999999998 30 1895 636 82 54 13 59 444 20.000000000000004 10.999999999999998 27 52 9.9999999999999982 1115 30 26 20 548 17 26 30 64 258 17 269 22 42 141 149 20 13.999999999999998 33 561 17 32 68
leaf_count=44 233 898 1291 1069 33 1347 14 12 11 942 1292 1058 81 71 171 97 10 15 29 28 294 49 31 10 13 11 30 1895 636 82 54 13 59 444 20 11 27 52 10 1115 30 26 20 548 17 26 30 64 258 17 269 22 42 141 149 20 14 33 561 17 32 68
internal_value=-9.43405e-05 -0.00238425 -0.00380883 -0.00213951 -0.00469006 0.0025113 -0.00416336 0.00175604 -0.0309489 0.00165181 0.000115389 0.00308969 0.0016203 -0.0053544 -0.00087177 -0.00390719 -0.00731411 -0.0216089 -0.00341742 -0.0124853 -0.00452739 -7.50508e-05 -0.009121 -0.0198123 -0.0014903 -0.00549688 -0.0202871 -0.00598722 -0.00186516 0.0055371 0.00492535 0.0254613 0.00421935 0.00126034 0.0076266 0.024347 0.00369365 0.00776157 -0.00665034 0.00248602 0.00954299 -0.0111914 -0.00696044 0.00170048 0.00250559 -0.00511656 -0.00691032 -0.00262771 0.00200785 -0.0194108 -0.00577673 -0.00136053 -0.0140868 -0.00631035 0.000232186 0.00221348 -0.00773657 -0.00418169 -0.00775168 -0.00291689 -0.0184836 0.000784304
internal_weight=16006 8520 7009 3372 2303 7486 2259 5993 44 5968 2887 3081 2023 3637 451 350 253 53 200 43 2215 397 103 54 23 1818 44 3186 1578 1493 1411 25 1511 613 169 31 138 111 64 1896 101 127 101 1663 1309 1774 1029 745 301 43 444 291 153 999 180 169 111 97 819 258 49 209
internal_count=16006 8520 7009 3372 2303 7486 2259 5993 44 5968 2887 3081 2023 3637 451 350 253 53 200 43 2215 397 103 54 23 1818 44 3186 1578 1493 1411 25 1511 613 169 31 138 111 64 1896 101 127 101 1663 1309 1774 1029 745 301 43 444 291 153 999 180 169 111 97 819 258 49 209
is_linear=0
shrinkage=0.04


Tree=14
num_leaves=63
num_cat=0
split_feature=0 2 1 2 2 0 2 1 5 4 1 3 5 3 5 1 7 7 4 4 2 1 4 7 3 2 5 1 2 0 7 4 1 4 5 2 5 2 5 8 5 5 5 5 1 5 2 2 0 4 8 7 0 0 2 2 2 3 4 4 5 1
split_gain=55.0697 40.8846 19.4877 17.8795 15.1582 9.83597 16.1584 11.7945 9.15145 9.66633 14.4676 8.94819 13.7542 14.2879 8.7667 8.74873 10.1439 23.2694 9.40615 9.39192 8.63019 11.6647 8.47443 7.86925 7.81744 8.91392 7.71564 7.68156 8.14408 15.0944 12.2052 8.98403 7.99928 7.81832 10.6153 8.40252 7.62331 7.58827 7.45195 8.7115 7.36751 8.96217 7.24355 7.3347 17.1302 7.2264 7.04263 7.33437 7.00176 6.97531 6.85352 12.8141 10.0315 7.69577 7.98717 6.68867 6.43509 6.43141 6.39361 7.41958 8.39555 7.3218
threshold=57.500000000000007 43.500000000000007 9.5000000000000018 33.500000000000007 71.500000000000014 97.500000000000014 32.500000000000007 7.5000000000000009 2878.0000000000005 0.18266648799180987 9.5000000000000018 7.5000000000000009 3497.0000000000005 8.5000000000000018 26.500000000000004 10.500000000000002 5.5000000000000009 1.5000000000000002 0.047760678455233581 0.056256538257002837 56.500000000000007 9.5000000000000018 0.052568206563591964 1.5000000000000002 4.5000000000000009 32.500000000000007 8502.0000000000018 4.5000000000000009 36.500000000000007 55.500000000000007 9.5000000000000018 0.089227773249149336 5.5000000000000009 0.11465835198760034 1601.5000000000002 33.500000000000007 73.500000000000014 30.500000000000004 39.500000000000007 1.0000000180025095e-35 102.50000000000001 91.500000000000014 3302.5000000000005 5734.5000000000009 1.0000000180025095e-35 197.50000000000003 30.500000000000004 29.500000000000004 51.500000000000007 0.19057175517082217 1.0000000180025095e-35 2.5000000000000004 66.500000000000014 73.500000000000014 27.500000000000004 31.500000000000004 39.500000000000007 6.5000000000000009 0.15351822227239612 0.13200250267982486 1191.5000000000002 1.5000000000000002
decision_type=2 2 2 2 2 2 2 2 2 2 2 2 2 2 2 2 2 2 2 2 2 2 2 2 2 2 2 2 2 2 2 2 2 2 2 2 2 2 2 2 2 2 2 2 2 2 2 2 2 2 2 2 2 2 2 2 2 2 2 2 2 2
left_child=1 2 11 24 15 6 7 42 9 10 -8 27 46 -14 -11 16 17 18 -3 45 -18 -22 -5 -15 -4 36 -6 48 29 31 -30 -29 -33 -34 35 55 -26 -31 39 49 41 -21 50 44 -44 -20 47 -13 -1 -9 -2 52 -52 54 -53 -35 -25 -23 59 60 61 -42
right_child=5 4 3 22 26 -7 8 38 -10 14 -12 12 13 23 -16 -17 20 -19 19 40 21 57 -24 56 25 -27 -28 28 30 37 -32 32 33 34 -36 -37 -38 -39 -40 -41 58 -43 43 -45 -46 -47 -48 -49 -50 -51 51 53 -54 -55 -56 -57 -58 -59 -60 -61 -62 -63
leaf_value=-0.0050730383064637096 0.0026308524304388585 0.018874948488127801 -0.043735253268274772 -0.038807005488872531 0.0062771503786208166 0.0053164759924139082 0.0048176309758134377 -0.0021194178887775964 -0.00013727130770908917 -0.0018241560288710509 -0.0035418614158956659 0.0051620383610328025 0.011646408796310426 -0.049332395696640011 0.0079462722780469161 -0.0040087631204702929 -0.0005802605357584866 0.0053618266390296487 -0.044355923755963637 -0.0058366041085006846 -0.00807364155800782 0.021962620017283104 -0.0081874519780067694 -0.0036643613942207824 -0.03011102062255144 -0.036061324372082142 -0.019604790951076308 -0.034482303674221039 -0.0035578858129253301 -0.02012899736315012 -0.032454549553394316 -0.032527897965162991 0.0062825242957898556 -0.0329732478488894 -0.0016222186654128812 -0.053165850754827257 -0.0032202804695476189 0.01201796297796748 -0.0055377668274227774 -0.0065493101281475057 -0.010346778681984654 -0.030635712286600697 0.055145732590396492 -0.0015007079321684108 0.008632412545181609 -0.0092324750813944593 0.0062477374526337037 -0.040344830242070286 0.0045784911993556679 0.027067865515748659 0.0090264843814074989 -0.024927561667987277 -0.026991373194959655 0.0044126168547690596 -3.4453187997524547e-05 0.0038871514240900675 -0.034790218914256377 -0.0095637160380681353 -0.0063164845333567692 0.013085473617469824 -0.010380577317914183 0.0058345610918225464
leaf_weight=521 565 30 28 13.999999999999998 590 1493 1033 20 969 166 486 11 25 13.999999999999998 1216 1323 1271 1193 13.999999999999998 247 547 33 583 30 24 36 18 49 383 14.999999999999998 24 31 34 16.000000000000004 43 14.999999999999998 54 43 876 48 53 25 12.999999999999998 89 147 28 302 10 155 35 14.999999999999998 34 57 173 51 13.999999999999998 15.999999999999998 13.999999999999998 209 80 97 258
leaf_count=521 565 30 28 14 590 1493 1033 20 969 166 486 11 25 14 1216 1323 1271 1193 14 247 547 33 583 30 24 36 18 49 383 15 24 31 34 16 43 15 54 43 876 48 53 25 13 89 147 28 302 10 155 35 15 34 57 173 51 14 16 14 209 80 97 258
internal_value=-9.1418e-05 -0.00229081 -0.00660184 -0.0120487 -0.000509173 0.0024112 0.001686 -0.00111653 0.00322433 0.00434822 0.00213983 -0.00429516 0.000882659 -0.013328 0.00676933 -0.00118166 -0.000267445 0.00154928 -0.00281706 -0.0034827 -0.00244543 -0.00642199 -0.00897588 -0.0238199 -0.0247866 -0.0197579 0.00547341 -0.00587064 -0.00891655 -0.014447 -0.00534704 -0.019593 -0.0146057 -0.00979171 -0.016048 -0.0294107 -0.0118214 0.00343604 -0.00433837 0.00577903 -0.00266332 -0.00823446 0.00163851 0.00765829 0.0127555 -0.0217926 0.00466425 -0.0171749 -0.00285064 0.0165346 -3.84758e-05 -0.00461491 -0.019412 -0.000411046 -0.0102123 -0.0160722 -0.0150857 0.0124849 -0.000474799 0.00202669 -0.00015861 0.00303982
internal_weight=16006 8520 2490 739 6030 7486 5993 2123 3870 2901 1519 1751 408 85 1382 5422 4099 2234 1041 1011 1865 594 597 60 142 114 608 1343 667 260 407 202 153 122 88 45 78 58 979 103 969 272 1144 249 160 42 323 21 676 55 895 330 72 258 85 30 46 47 697 488 408 311
internal_count=16006 8520 2490 739 6030 7486 5993 2123 3870 2901 1519 1751 408 85 1382 5422 4099 2234 1041 1011 1865 594 597 60 142 114 608 1343 667 260 407 202 153 122 88 45 78 58 979 103 969 272 1144 249 160 42 323 21 676 55 895 330 72 258 85 30 46 47 697 488 408 311
is_linear=0
shrinkage=0.04


Tree=15
num_leaves=63
num_cat=0
split_feature=0 2 1 2 9 3 1 0 2 7 9 0 0 4 4 4 2 1 2 9 4 4 3 4 3 6 2 4 2 0 9 4 4 4 4 7 7 1 4 3 4 2 2 4 7 9 6 4 4 7 4 6 4 4 4 4 1 6 3 1 4 2
split_gain=42.722 32.1823 25.6622 17.6252 15.0784 11.0563 10.8021 9.46211 9.3566 15.2914 13.379 13.8499 12.6526 16.507 11.4897 9.75784 9.11739 10.3859 24.6706 12.3408 8.55659 10.4283 8.49613 8.42902 8.40829 14.3097 10.0056 8.10776 7.94254 12.2913 11.8714 9.54222 8.08628 8.45705 7.41472 7.39477 14.3825 13.1512 8.64414 7.17193 7.04298 6.90402 6.72451 6.66658 11.4631 6.6006 6.41856 6.40771 6.15118 6.1278 6.82244 7.91692 12.933 8.66401 6.08188 6.05604 8.66812 5.73486 6.30746 5.67393 5.64463 11.1714
threshold=61.500000000000007 37.500000000000007 4.5000000000000009 71.500000000000014 17.500000000000004 11.500000000000002 4.5000000000000009 101.50000000000001 33.500000000000007 6.5000000000000009 11.500000000000002 51.500000000000007 52.500000000000007 0.14340965449810031 0.12598672509193423 0.26592022180557257 64.500000000000014 2.5000000000000004 21.500000000000004 15.500000000000002 0.17619358748197558 0.2281778156757355 6.5000000000000009 0.24145075678825381 5.5000000000000009 1.0000000180025095e-35 30.500000000000004 0.24293288588523868 27.500000000000004 81.500000000000014 5.5000000000000009 0.20425576716661456 0.19233699142932895 0.14564150571823123 0.43686157464981085 3.5000000000000004 2.5000000000000004 15.500000000000002 0.33258283138275152 6.5000000000000009 0.22203117609024051 38.500000000000007 22.500000000000004 0.41056412458419805 1.0000000180025095e-35 6.5000000000000009 1.0000000180025095e-35 0.29972095787525183 0.22325373440980914 6.5000000000000009 0.13985814154148105 2.5000000000000004 0.11305883526802064 0.12251539900898935 0.15736941993236545 0.11387749761343004 3.5000000000000004 1.5000000000000002 6.5000000000000009 4.5000000000000009 0.082152865827083602 33.500000000000007
decision_type=2 2 2 2 2 2 2 2 2 2 2 2 2 2 2 2 2 2 2 2 2 2 2 2 2 2 2 2 2 2 2 2 2 2 2 2 2 2 2 2 2 2 2 2 2 2 2 2 2 2 2 2 2 2 2 2 2 2 2 2 2 2
left_child=1 2 24 4 35 8 23 16 12 -10 11 20 42 14 -14 27 17 18 -2 34 45 -22 54 -6 25 -1 57 -15 29 30 31 32 33 -19 -20 36 38 -38 47 -31 -12 -8 -4 44 -40 -11 -24 -3 -33 -30 51 52 -51 -53 -5 -32 -57 -26 -59 -37 61 -28
right_child=7 3 5 22 6 -7 41 -9 9 10 40 -13 13 15 -16 -17 -18 28 19 -21 21 -23 46 -25 26 -27 60 -29 49 39 55 48 -34 -35 -36 59 37 -39 43 -41 -42 -43 -44 -45 -46 -47 -48 -49 -50 50 -52 53 -54 -55 -56 56 -58 58 -60 -61 -62 -63
leaf_value=-0.030814429446061452 0.037473116206212173 -0.0027848602386469422 0.00060427545011043551 0.013493112600805088 0.0071773162513015226 0.015229414176195862 0.023173560635911094 0.0065492612718871532 -0.0033441313949849785 -0.037884319568935183 -0.011449444026287113 -0.0065085821538059807 -0.006845350219966735 -0.019593593218274738 0.021944360134005546 0.012165387068542519 0.0079881488174069742 -0.031011272475771283 0.00094092995038020592 0.0097324887027093708 0.0075248279544440156 -0.047981481855565854 0.015127131204394732 -0.012484791397242933 0.0047012038001647358 0.010004114447287256 -0.04948303811116652 -0.053836140705988952 0.0026213495801424985 0.002656424109641274 0.024920275886853537 0.020350963317430939 -0.055469941799457259 -0.003424152200645392 -0.032187293935905803 -0.0063899284661247547 0.0035805180364092536 -0.04039778349616311 -0.0066953312270343294 -0.0045274021965899551 0.023539726875045085 -0.0019318543085698873 -0.027077465785758165 -0.00052446975245287546 -0.057880547199930465 -0.081705408374468491 -0.0036796039409860218 0.017584272321462632 -0.01172464042239719 0.0023309892548455131 -3.2323450778454354e-05 -0.017128537757322194 -0.033868648480146361 0.0227988460848206 0.0038736184528097507 -0.028005528534000571 -0.0013321539959265183 -0.048527805075049397 -0.015164966964360441 -0.0026439086383529624 0.00097271278452760773 -0.0019104647246499856
leaf_weight=13.999999999999998 35 1909 14.999999999999998 208 600 23 17 707 315 18.000000000000004 55 26 84 114 29 12.999999999999998 342 45 616 350 10.000000000000002 9.9999999999999982 33 36 11.999999999999998 162 9.9999999999999982 11.999999999999998 2327 631 10.999999999999998 11.999999999999998 11.999999999999998 30 9.9999999999999982 949 931 9.9999999999999982 15.000000000000002 342 9.9999999999999982 646 163 18 12.999999999999998 10.999999999999998 197 24 35 26 867 14.999999999999998 38 18 217 21 176 12.999999999999998 32 2059 264 29
leaf_count=14 35 1909 15 208 600 23 17 707 315 18 55 26 84 114 29 13 342 45 616 350 10 10 33 36 12 162 10 12 2327 631 11 12 12 30 10 949 931 10 15 342 10 646 163 18 13 11 197 24 35 26 867 15 38 18 217 21 176 13 32 2059 264 29
internal_value=-0.000269751 -0.0020178 -0.00750588 -0.00101104 -0.00158111 -0.0115994 0.00231911 0.00217517 -0.0123176 -0.00827193 -0.0192288 -0.030645 -0.01656 -0.010697 0.000635755 -0.0198773 0.00165453 0.00126683 0.00493639 0.00372835 -0.0429858 -0.0210011 0.00526566 0.00604024 -0.000555162 0.00657884 -0.00406254 -0.0232845 0.000459609 -0.00216581 -0.00867688 -0.0179207 -0.025702 -0.0202193 0.000354854 -0.00243669 -0.00100042 0.00306653 -0.00293682 0.000125217 -0.00573079 -0.00124817 -0.024732 -0.0199025 -0.0317742 -0.0568089 -0.000910126 -0.00252093 -0.00319843 0.00151021 -0.00116775 -0.0111716 -0.0192914 0.0045624 0.00861152 -0.00264531 -0.00432279 -0.0192882 -0.0257355 -0.00382881 -0.00113111 -0.0151407
internal_weight=15992 9326 1444 7882 7227 908 1299 6666 885 455 140 75 430 252 113 139 5959 5617 1011 976 49 20 655 636 536 176 360 126 4606 1315 342 134 87 75 626 5928 2920 941 1979 973 65 663 178 46 28 29 230 1933 47 3291 964 97 64 33 425 208 197 57 45 3008 303 39
internal_count=15992 9326 1444 7882 7227 908 1299 6666 885 455 140 75 430 252 113 139 5959 5617 1011 976 49 20 655 636 536 176 360 126 4606 1315 342 134 87 75 626 5928 2920 941 1979 973 65 663 178 46 28 29 230 1933 47 3291 964 97 64 33 425 208 197 57 45 3008 303 39
is_linear=0
shrinkage=0.04


Tree=16
num_leaves=63
num_cat=0
split_feature=9 4 7 2 2 3 4 4 4 4 4 5 2 9 5 5 3 9 7 2 4 5 4 4 9 7 7 3 5 2 5 5 2 2 7 7 3 5 4 5 5 3 4 5 5 4 5 3 2 2 4 5 3 2 5 3 7 5 4 2 9 9
split_gain=20.7505 23.814 14.4878 11.3365 10.4412 10.3167 14.5374 9.75562 9.30065 8.06914 10.0628 8.15615 8.92999 8.02963 7.95459 9.56922 7.72395 8.35953 14.0712 7.28407 10.1006 8.67063 6.91622 6.71044 6.87253 6.63144 9.57695 8.54542 7.85562 6.4153 6.35291 8.14949 6.19685 11.0613 6.09892 10.9825 6.03331 5.91237 9.09696 6.53027 6.83193 5.76367 6.91857 7.09023 6.20303 6.15201 6.7178 5.73993 9.23174 6.80233 5.70344 5.66544 5.87373 7.74992 5.79201 9.44185 5.64099 8.43115 5.76231 5.63814 5.63579 8.44426
threshold=18.500000000000004 0.21315496414899829 7.5000000000000009 37.500000000000007 58.500000000000007 4.5000000000000009 0.17702057212591174 0.21220416575670245 0.15891529619693759 0.12978173047304156 0.14416217803955081 56.500000000000007 45.500000000000007 3.5000000000000004 2047.5000000000002 2612.0000000000005 14.500000000000002 1.5000000000000002 6.5000000000000009 43.500000000000007 0.27535846829414373 3968.0000000000005 0.17007306218147281 0.34096005558967596 16.500000000000004 2.5000000000000004 6.5000000000000009 8.5000000000000018 49.500000000000007 60.500000000000007 47.500000000000007 780.00000000000011 29.500000000000004 44.500000000000007 8.5000000000000018 9.5000000000000018 7.5000000000000009 856.50000000000011 0.15351822227239612 222.50000000000003 169.50000000000003 7.5000000000000009 0.31402395665645605 360.00000000000006 273.50000000000006 0.11790800839662553 405.50000000000006 6.5000000000000009 30.500000000000004 34.500000000000007 0.30688115954399114 634.50000000000011 6.5000000000000009 68.500000000000014 222.50000000000003 7.5000000000000009 4.5000000000000009 212.50000000000003 0.24145075678825381 61.500000000000007 6.5000000000000009 14.500000000000002
decision_type=2 2 2 2 2 2 2 2 2 2 2 2 2 2 2 2 2 2 2 2 2 2 2 2 2 2 2 2 2 2 2 2 2 2 2 2 2 2 2 2 2 2 2 2 2 2 2 2 2 2 2 2 2 2 2 2 2 2 2 2 2 2
left_child=1 2 4 5 7 6 -4 8 13 11 -11 12 -5 30 -15 36 17 18 56 20 21 34 -10 24 -18 -19 27 -27 -28 50 -1 -32 -9 -34 -20 -36 -16 38 39 40 -7 -2 43 44 -43 -45 -47 48 -39 -50 -29 52 53 59 -54 -56 -3 -58 -59 -6 -61 -62
right_child=41 16 3 9 51 37 -8 32 22 10 -12 -13 -14 14 15 -17 23 25 19 -21 -22 -23 -24 -25 -26 26 28 29 -30 -31 31 -33 33 -35 35 -37 -38 47 -40 -41 -42 42 -44 45 -46 46 -48 -49 49 -51 -52 -53 54 -55 55 -57 57 58 -60 60 61 -63
leaf_value=0.033199486006389965 0.002053408650751013 -0.00031693797249258873 -0.066398236228869506 -0.0036410495226199798 0.0054958740075429285 -0.016565860837697982 -0.012460210288564364 0.0015257604924532083 0.0049625650745206504 0.0092328403692245476 -0.0035457571160803698 -0.0068062017043712189 -0.050648983860015866 -0.002686153893844908 -0.015660420212082478 -0.0051601983834834624 -0.040483938984180748 0.00052038935789671542 0.0023469525814056396 -0.00047229271005558711 -0.0073208364665508265 -0.05644907123701913 -0.00079729086035363619 0.0034486281900178817 7.9955653710798739e-05 0.0098551898658472813 -0.0061267464872604852 -0.0062811745707388525 0.003382659470627158 0.014293410838974846 -0.0054054379784822006 0.0076272296481841315 -0.052228983582819195 0.00036002028259364045 -0.058131686528523747 -0.0052137610356012979 -0.047979892606084998 -0.044822584004505818 0.00096402814972859163 -0.0019770246250288828 -0.053240083867853338 0.0084636098974677793 0.022326045197390374 0.015988488420512943 0.028672303640407817 -0.02917931501319011 0.0013302351077071955 -0.0038077875665716221 0.00017420277744531633 -0.028339332573688949 0.010962530810672505 0.0054946609855147212 -0.0003451211078195121 0.0072371902184812254 -0.018723305929497062 0.0043945060025813972 -0.01867077671780306 0.030612662494182583 0.0077632233602226743 -0.012372341282448723 0.0099599330657058303 -0.013908858387093794
leaf_weight=9.9999999999999982 1858 591 11.999999999999998 12.000000000000002 107 41 23 11.999999999999998 428 124 465 259 13.999999999999998 4232 85 330 18 1076 13.999999999999998 92 104 12.999999999999998 1496 20 10.000000000000002 646 167 142 800 44 130 184 16.000000000000004 9.9999999999999982 11 14 9.9999999999999982 22 129 34 9.9999999999999982 145 41 44 29 10.999999999999998 304 36 27 25 38 447 253 288 82 42 15.999999999999998 20 128 102 62 37
leaf_count=10 1858 591 12 12 107 41 23 12 428 124 465 259 14 4232 85 330 18 1076 14 92 104 13 1496 20 10 646 167 142 800 44 130 184 16 10 11 14 10 22 129 34 10 145 41 44 29 11 304 36 27 25 38 447 253 288 82 42 16 20 128 102 62 37
internal_value=-0.000260235 -0.000870719 -0.00194824 -0.00599526 -0.00135044 -0.0119757 -0.0323951 -0.00198987 -0.00187628 -0.00352331 -0.000837657 -0.00903735 -0.0300396 -0.00278863 -0.00321277 -0.00842864 0.00173655 0.00193447 -0.00121134 -0.00945976 -0.0146978 -0.0289598 0.000483842 -0.0140387 -0.0263557 0.00301905 0.00447936 0.00752335 0.00173163 0.000766819 0.00328652 0.00221881 -0.0219512 -0.0325901 -0.0185146 -0.0299918 -0.0195685 -0.00966471 -0.00571758 -0.0157977 -0.0247194 0.00314093 0.00664453 0.00539121 0.0119992 0.00215292 0.000163196 -0.017187 -0.0235049 -0.0137348 -0.00257828 0.00177239 5.43727e-05 0.00252879 -0.0038432 -0.0108886 0.00150171 0.00804193 0.0110626 -0.00187009 -0.00581887 0.000949392
internal_weight=15992 13560 9596 1233 8363 359 35 6943 6905 874 589 285 26 4981 4657 425 3964 3916 1003 248 156 52 1924 48 28 2913 1837 870 967 224 324 314 38 26 39 25 95 324 214 85 51 2432 574 533 174 359 315 110 74 52 180 1420 973 596 377 124 755 164 148 308 201 99
internal_count=15992 13560 9596 1233 8363 359 35 6943 6905 874 589 285 26 4981 4657 425 3964 3916 1003 248 156 52 1924 48 28 2913 1837 870 967 224 324 314 38 26 39 25 95 324 214 85 51 2432 574 533 174 359 315 110 74 52 180 1420 973 596 377 124 755 164 148 308 201 99
is_linear=0
shrinkage=0.04


Tree=17
num_leaves=63
num_cat=0
split_feature=0 2 1 2 1 7 7 2 3 2 7 0 4 4 4 7 7 3 4 4 4 6 4 3 6 2 1 3 4 3 4 2 4 3 1 1 4 1 8 2 3 4 7 4 7 3 4 6 1 4 2 3 3 4 1 4 6 2 0 6 6 6
split_gain=38.3036 28.7967 23.5429 15.3848 12.023 12.9209 17.9215 10.7573 10.1632 8.71746 13.6295 11.7129 15.2287 10.6284 8.97254 8.20169 10.5713 10.2014 10.0683 8.90942 13.8584 8.59997 8.75382 7.73043 13.2471 9.12947 7.58517 7.55252 12.6396 7.50529 7.33947 6.97079 9.23204 6.78129 6.53537 6.51968 6.32466 7.31759 8.28407 6.83557 7.68115 6.29509 12.8345 7.6902 8.76218 6.70718 6.22174 6.22165 7.6989 9.42819 8.79827 8.33041 6.58338 6.44308 6.25918 6.24942 6.08089 8.25182 5.84215 6.71666 5.83049 5.8131
threshold=61.500000000000007 37.500000000000007 4.5000000000000009 71.500000000000014 10.500000000000002 5.5000000000000009 1.5000000000000002 53.500000000000007 11.500000000000002 33.500000000000007 6.5000000000000009 52.500000000000007 0.14340965449810031 0.12598672509193423 0.26592022180557257 6.5000000000000009 2.5000000000000004 14.500000000000002 0.13799905776977542 0.2372880503535271 0.24145075678825381 2.5000000000000004 0.11305883526802064 5.5000000000000009 1.0000000180025095e-35 30.500000000000004 5.5000000000000009 5.5000000000000009 0.14056926220655444 6.5000000000000009 0.24293288588523868 32.500000000000007 0.38961221277713781 7.5000000000000009 4.5000000000000009 14.500000000000002 0.084202401340007796 12.500000000000002 1.0000000180025095e-35 22.500000000000004 8.5000000000000018 0.12666221708059314 8.5000000000000018 0.14201221615076068 7.5000000000000009 8.5000000000000018 0.12251539900898935 4.5000000000000009 3.5000000000000004 0.30343540012836462 22.500000000000004 4.5000000000000009 6.5000000000000009 0.1975284740328789 11.500000000000002 0.25813952088356024 3.5000000000000004 47.500000000000007 55.500000000000007 1.0000000180025095e-35 1.0000000180025095e-35 1.0000000180025095e-35
decision_type=2 2 2 2 2 2 2 2 2 2 2 2 2 2 2 2 2 2 2 2 2 2 2 2 2 2 2 2 2 2 2 2 2 2 2 2 2 2 2 2 2 2 2 2 2 2 2 2 2 2 2 2 2 2 2 2 2 2 2 2 2 2
